[["feature_transformer.weights",[768,256],[0.0,0.0,0.0,0.0,0.0,0.0,0.0,0.0,0.0,0.0,0.0,0.0,0.0,0.0,0.0,0.0,0.0,0.0,0.0,0.0,0.0,0.0,0.0,0.0,0.0,0.0,0.0,0.0,0.0,0.0,0.0,0.0,0.0,0.0,0.0,0.0,0.0,0.0,0.0,0.0,0.0,0.0,0.0,0.0,0.0,0.0,0.0,0.0,0.0,0.0,0.0,0.0,0.0,0.0,0.0,0.0,0.0,0.0,0.0,0.0,0.0,0.0,0.0,0.0,0.0,0.0,0.0,0.0,0.0,0.0,0.0,0.0,0.0,0.0,0.0,0.0,0.0,0.0,0.0,0.0,0.0,0.0,0.0,0.0,0.0,0.0,0.0,0.0,0.0,0.0,0.0,0.0,0.0,0.0,0.0,0.0,0.0,0.0,0.0,0.0,0.0,0.0,0.0,0.0,0.0,0.0,0.0,0.0,0.0,0.0,0.0,0.0,0.0,0.0,0.0,0.0,0.0,0.0,0.0,0.0,0.0,0.0,0.0,0.0,0.0,0.0,0.0,0.0,0.0,0.0,0.0,0.0,0.0,0.0,0.0,0.0,0.0,0.0,0.0,0.0,0.0,0.0,0.0,0.0,0.0,0.0,0.0,0.0,0.0,0.0,0.0,0.0,0.0,0.0,0.0,0.0,0.0,0.0,0.0,0.0,0.0,0.0,0.0,0.0,0.0,0.0,0.0,0.0,0.0,0.0,0.0,0.0,0.0,0.0,0.0,0.0,0.0,0.0,0.0,0.0,0.0,0.0,0.0,0.0,0.0,0.0,0.0,0.0,0.0,0.0,0.0,0.0,0.0,0.0,0.0,0.0,0.0,0.0,0.0,0.0,0.0,0.0,0.0,0.0,0.0,0.0,0.0,0.0,0.0,0.0,0.0,0.0,0.0,0.0,0.0,0.0,0.0,0.0,0.0,0.0,0.0,0.0,0.0,0.0,0.0,0.0,0.0,0.0,0.0,0.0,0.0,0.0,0.0,0.0,0.0,0.0,0.0,0.0,0.0,0.0,0.0,0.0,0.0,0.0,0.0,0.0,0.0,0.0,0.0,0.0,0.0,0.0,0.0,0.0,0.0,0.0,0.0,0.0,0.0,0.0,0.0,0.0,0.0,0.0,0.0,0.0,0.0,0.0,0.0,0.0,0.0,0.0,0.0,0.0,0.0,0.0,0.0,0.0,0.0,0.0,0.0,0.0,0.0,0.0,0.0,0.0,0.0,0.0,0.0,0.0,0.0,0.0,0.0,0.0,0.0,0.0,0.0,0.0,0.0,0.0,0.0,0.0,0.0,0.0,0.0,0.0,0.0,0.0,0.0,0.0,0.0,0.0,0.0,0.0,0.0,0.0,0.0,0.0,0.0,0.0,0.0,0.0,0.0,0.0,0.0,0.0,0.0,0.0,0.0,0.0,0.0,0.0,0.0,0.0,0.0,0.0,0.0,0.0,0.0,0.0,0.0,0.0,0.0,0.0,0.0,0.0,0.0,0.0,0.0,0.0,0.0,0.0,0.0,0.0,0.0,0.0,0.0,0.0,0.0,0.0,0.0,0.0,0.0,0.0,0.0,0.0,0.0,0.0,0.0,0.0,0.0,0.0,0.0,0.0,0.0,0.0,0.0,0.0,0.0,0.0,0.0,0.0,0.0,0.0,0.0,0.0,0.0,0.0,0.0,0.0,0.0,0.0,0.0,0.0,0.0,0.0,0.0,0.0,0.0,0.0,0.0,0.0,0.0,0.0,0.0,0.0,0.0,0.0,0.0,0.0,0.0,0.0,0.0,0.0,0.0,0.0,0.0,0.0,0.0,0.0,0.0,0.0,0.0,0.0,0.0,0.0,0.0,0.0,0.0,0.0,0.0,0.0,0.0,0.0,0.0,0.0,0.0,0.0,0.0,0.0,0.0,0.0,0.0,0.0,0.0,0.0,0.0,0.0,0.0,0.0,0.0,0.0,0.0,0.0,0.0,0.0,0.0,0.0,0.0,0.0,0.0,0.0,0.0,0.0,0.0,0.0,0.0,0.0,0.0,0.0,0.0,0.0,0.0,0.0,0.0,0.0,0.0,0.0,0.0,0.0,0.0,0.0,0.0,0.0,0.0,0.0,0.0,0.0,0.0,0.0,0.0,0.0,0.0,0.0,0.0,0.0,0.0,0.0,0.0,0.0,0.0,0.0,0.0,0.0,0.0,0.0,0.0,0.0,0.0,0.0,0.0,0.0,0.0,0.0,0.0,0.0,0.0,0.0,0.0,0.0,0.0,0.0,0.0,0.0,0.0,0.0,0.0,0.0,0.0,0.0,0.0,0.0,0.0,0.0,0.0,0.0,0.0,0.0,0.0,0.0,0.0,0.0,0.0,0.0,0.0,0.0,0.0,0.0,0.0,0.0,0.0,0.0,0.0,0.0,0.0,0.0,0.0,0.0,0.0,0.0,0.0,0.0,0.0,0.0,0.0,0.0,0.0,0.0,0.0,0.0,0.0,0.0,0.0,0.0,0.0,0.0,0.0,0.0,0.0,0.0,0.0,0.0,0.0,0.0,0.0,0.0,0.0,0.0,0.0,0.0,0.0,0.0,0.0,0.0,0.0,0.0,0.0,0.0,0.0,0.0,0.0,0.0,0.0,0.0,0.0,0.0,0.0,0.0,0.0,0.0,0.0,0.0,0.0,0.0,0.0,0.0,0.0,0.0,0.0,0.0,0.0,0.0,0.0,0.0,0.0,0.0,0.0,0.0,0.0,0.0,0.0,0.0,0.0,0.0,0.0,0.0,0.0,0.0,0.0,0.0,0.0,0.0,0.0,0.0,0.0,0.0,0.0,0.0,0.0,0.0,0.0,0.0,0.0,0.0,0.0,0.0,0.0,0.0,0.0,0.0,0.0,0.0,0.0,0.0,0.0,0.0,0.0,0.0,0.0,0.0,0.0,0.0,0.0,0.0,0.0,0.0,0.0,0.0,0.0,0.0,0.0,0.0,0.0,0.0,0.0,0.0,0.0,0.0,0.0,0.0,0.0,0.0,0.0,0.0,0.0,0.0,0.0,0.0,0.0,0.0,0.0,0.0,0.0,0.0,0.0,0.0,0.0,0.0,0.0,0.0,0.0,0.0,0.0,0.0,0.0,0.0,0.0,0.0,0.0,0.0,0.0,0.0,0.0,0.0,0.0,0.0,0.0,0.0,0.0,0.0,0.0,0.0,0.0,0.0,0.0,0.0,0.0,0.0,0.0,0.0,0.0,0.0,0.0,0.0,0.0,0.0,0.0,0.0,0.0,0.0,0.0,0.0,0.0,0.0,0.0,0.0,0.0,0.0,0.0,0.0,0.0,0.0,0.0,0.0,0.0,0.0,0.0,0.0,0.0,0.0,0.0,0.0,0.0,0.0,0.0,0.0,0.0,0.0,0.0,0.0,0.0,0.0,0.0,0.0,0.0,0.0,0.0,0.0,0.0,0.0,0.0,0.0,0.0,0.0,0.0,0.0,0.0,0.0,0.0,0.0,0.0,0.0,0.0,0.0,0.0,0.0,0.0,0.0,0.0,0.0,0.0,0.0,0.0,0.0,0.0,0.0,0.0,0.0,0.0,0.0,0.0,0.0,0.0,0.0,0.0,0.0,0.0,0.0,0.0,0.0,0.0,0.0,0.0,0.0,0.0,0.0,0.0,0.0,0.0,0.0,0.0,0.0,0.0,0.0,0.0,0.0,0.0,0.0,0.0,0.0,0.0,0.0,0.0,0.0,0.0,0.0,0.0,0.0,0.0,0.0,0.0,0.0,0.0,0.0,0.0,0.0,0.0,0.0,0.0,0.0,0.0,0.0,0.0,0.0,0.0,0.0,0.0,0.0,0.0,0.0,0.0,0.0,0.0,0.0,0.0,0.0,0.0,0.0,0.0,0.0,0.0,0.0,0.0,0.0,0.0,0.0,0.0,0.0,0.0,0.0,0.0,0.0,0.0,0.0,0.0,0.0,0.0,0.0,0.0,0.0,0.0,0.0,0.0,0.0,0.0,0.0,0.0,0.0,0.0,0.0,0.0,0.0,0.0,0.0,0.0,0.0,0.0,0.0,0.0,0.0,0.0,0.0,0.0,0.0,0.0,0.0,0.0,0.0,0.0,0.0,0.0,0.0,0.0,0.0,0.0,0.0,0.0,0.0,0.0,0.0,0.0,0.0,0.0,0.0,0.0,0.0,0.0,0.0,0.0,0.0,0.0,0.0,0.0,0.0,0.0,0.0,0.0,0.0,0.0,0.0,0.0,0.0,0.0,0.0,0.0,0.0,0.0,0.0,0.0,0.0,0.0,0.0,0.0,0.0,0.0,0.0,0.0,0.0,0.0,0.0,0.0,0.0,0.0,0.0,0.0,0.0,0.0,0.0,0.0,0.0,0.0,0.0,0.0,0.0,0.0,0.0,0.0,0.0,0.0,0.0,0.0,0.0,0.0,0.0,0.0,0.0,0.0,0.0,0.0,0.0,0.0,0.0,0.0,0.0,0.0,0.0,0.0,0.0,0.0,0.0,0.0,0.0,0.0,0.0,0.0,0.0,0.0,0.0,0.0,0.0,0.0,0.0,0.0,0.0,0.0,0.0,0.0,0.0,0.0,0.0,0.0,0.0,0.0,0.0,0.0,0.0,0.0,0.0,0.0,0.0,0.0,0.0,0.0,0.0,0.0,0.0,0.0,0.0,0.0,0.0,0.0,0.0,0.0,0.0,0.0,0.0,0.0,0.0,0.0,0.0,0.0,0.0,0.0,0.0,0.0,0.0,0.0,0.0,0.0,0.0,0.0,0.0,0.0,0.0,0.0,0.0,0.0,0.0,0.0,0.0,0.0,0.0,0.0,0.0,0.0,0.0,0.0,0.0,0.0,0.0,0.0,0.0,0.0,0.0,0.0,0.0,0.0,0.0,0.0,0.0,0.0,0.0,0.0,0.0,0.0,0.0,0.0,0.0,0.0,0.0,0.0,0.0,0.0,0.0,0.0,0.0,0.0,0.0,0.0,0.0,0.0,0.0,0.0,0.0,0.0,0.0,0.0,0.0,0.0,0.0,0.0,0.0,0.0,0.0,0.0,0.0,0.0,0.0,0.0,0.0,0.0,0.0,0.0,0.0,0.0,0.0,0.0,0.0,0.0,0.0,0.0,0.0,0.0,0.0,0.0,0.0,0.0,0.0,0.0,0.0,0.0,0.0,0.0,0.0,0.0,0.0,0.0,0.0,0.0,0.0,0.0,0.0,0.0,0.0,0.0,0.0,0.0,0.0,0.0,0.0,0.0,0.0,0.0,0.0,0.0,0.0,0.0,0.0,0.0,0.0,0.0,0.0,0.0,0.0,0.0,0.0,0.0,0.0,0.0,0.0,0.0,0.0,0.0,0.0,0.0,0.0,0.0,0.0,0.0,0.0,0.0,0.0,0.0,0.0,0.0,0.0,0.0,0.0,0.0,0.0,0.0,0.0,0.0,0.0,0.0,0.0,0.0,0.0,0.0,0.0,0.0,0.0,0.0,0.0,0.0,0.0,0.0,0.0,0.0,0.0,0.0,0.0,0.0,0.0,0.0,0.0,0.0,0.0,0.0,0.0,0.0,0.0,0.0,0.0,0.0,0.0,0.0,0.0,0.0,0.0,0.0,0.0,0.0,0.0,0.0,0.0,0.0,0.0,0.0,0.0,0.0,0.0,0.0,0.0,0.0,0.0,0.0,0.0,0.0,0.0,0.0,0.0,0.0,0.0,0.0,0.0,0.0,0.0,0.0,0.0,0.0,0.0,0.0,0.0,0.0,0.0,0.0,0.0,0.0,0.0,0.0,0.0,0.0,0.0,0.0,0.0,0.0,0.0,0.0,0.0,0.0,0.0,0.0,0.0,0.0,0.0,0.0,0.0,0.0,0.0,0.0,0.0,0.0,0.0,0.0,0.0,0.0,0.0,0.0,0.0,0.0,0.0,0.0,0.0,0.0,0.0,0.0,0.0,0.0,0.0,0.0,0.0,0.0,0.0,0.0,0.0,0.0,0.0,0.0,0.0,0.0,0.0,0.0,0.0,0.0,0.0,0.0,0.0,0.0,0.0,0.0,0.0,0.0,0.0,0.0,0.0,0.0,0.0,0.0,0.0,0.0,0.0,0.0,0.0,0.0,0.0,0.0,0.0,0.0,0.0,0.0,0.0,0.0,0.0,0.0,0.0,0.0,0.0,0.0,0.0,0.0,0.0,0.0,0.0,0.0,0.0,0.0,0.0,0.0,0.0,0.0,0.0,0.0,0.0,0.0,0.0,0.0,0.0,0.0,0.0,0.0,0.0,0.0,0.0,0.0,0.0,0.0,0.0,0.0,0.0,0.0,0.0,0.0,0.0,0.0,0.0,0.0,0.0,0.0,0.0,0.0,0.0,0.0,0.0,0.0,0.0,0.0,0.0,0.0,0.0,0.0,0.0,0.0,0.0,0.0,0.0,0.0,0.0,0.0,0.0,0.0,0.0,0.0,0.0,0.0,0.0,0.0,0.0,0.0,0.0,0.0,0.0,0.0,0.0,0.0,0.0,0.0,0.0,0.0,0.0,0.0,0.0,0.0,0.0,0.0,0.0,0.0,0.0,0.0,0.0,0.0,0.0,0.0,0.0,0.0,0.0,0.0,0.0,0.0,0.0,0.0,0.0,0.0,0.0,0.0,0.0,0.0,0.0,0.0,0.0,0.0,0.0,0.0,0.0,0.0,0.0,0.0,0.0,0.0,0.0,0.0,0.0,0.0,0.0,0.0,0.0,0.0,0.0,0.0,0.0,0.0,0.0,0.0,0.0,0.0,0.0,0.0,0.0,0.0,0.0,0.0,0.0,0.0,0.0,0.0,0.0,0.0,0.0,0.0,0.0,0.0,0.0,0.0,0.0,0.0,0.0,0.0,0.0,0.0,0.0,0.0,0.0,0.0,0.0,0.0,0.0,0.0,0.0,0.0,0.0,0.0,0.0,0.0,0.0,0.0,0.0,0.0,0.0,0.0,0.0,0.0,0.0,0.0,0.0,0.0,0.0,0.0,0.0,0.0,0.0,0.0,0.0,0.0,0.0,0.0,0.0,0.0,0.0,0.0,0.0,0.0,0.0,0.0,0.0,0.0,0.0,0.0,0.0,0.0,0.0,0.0,0.0,0.0,0.0,0.0,0.0,0.0,0.0,0.0,0.0,0.0,0.0,0.0,0.0,0.0,0.0,0.0,0.0,0.0,0.0,0.0,0.0,0.0,0.0,0.0,0.0,0.0,0.0,0.0,0.0,0.0,0.0,0.0,0.0,0.0,0.0,0.0,0.0,0.0,0.0,0.0,0.0,0.0,0.0,0.0,0.0,0.0,0.0,0.0,0.0,0.0,0.0,0.0,0.0,0.0,0.0,0.0,0.0,0.0,0.0,0.0,0.0,0.0,0.0,0.0,0.0,0.0,0.0,0.0,0.0,0.0,0.0,0.0,0.0,0.0,0.0,0.0,0.0,0.0,0.0,0.0,0.0,0.0,0.0,0.0,0.0,0.0,0.0,0.0,0.0,0.0,0.0,0.0,0.0,0.0,0.0,0.0,0.0,0.0,0.0,0.0,0.0,0.0,0.0,0.0,0.0,0.0,0.0,0.0,0.0,0.0,0.0,0.0,0.0,0.0,0.0,0.0,0.0,0.0,0.0,0.0,0.0,0.0,0.0,0.0,0.0,0.0,0.0,0.0,0.0,0.0,0.0,0.0,0.0,0.0,0.0,0.0,0.0,0.0,0.0,0.0,0.0,0.0,0.0,0.0,0.0,0.0,0.0,0.0,0.0,0.0,0.0,0.0,0.0,0.0,0.0,0.0,0.0,0.0,0.0,0.0,0.0,0.0,0.0,0.0,0.0,0.0,0.0,0.0,0.0,0.0,0.0,0.0,0.0,0.0,0.0,0.0,0.0,0.0,0.0,0.0,0.0,0.0,0.0,0.0,0.0,0.0,0.0,0.0,0.0,0.0,0.0,0.0,0.0,0.0,0.0,0.0,0.0,0.0,0.0,0.0,0.0,0.0,0.0,0.0,0.0,0.0,0.0,0.0,0.0,0.0,0.0,0.0,0.0,0.0,0.0,0.0,0.0,0.0,0.0,0.0,0.0,0.0,0.0,0.0,0.0,0.0,0.0,0.0,0.0,0.0,0.0,0.0,0.0,0.0,0.0,0.0,0.0,0.0,0.0,0.0,0.0,0.0,0.0,0.0,0.0,0.0,0.0,0.0,0.0,0.0,0.0,0.0,0.0,0.0,0.0,0.0,0.0,0.0,0.0,0.0,0.0,0.0,0.0,0.0,0.0,0.0,0.0,0.0,0.0,0.0,0.0,0.0,0.0,0.0,0.0,0.0,0.0,0.0,0.0,0.0,0.0,0.0,0.0,0.0,0.0,0.0,0.0,0.0,0.0,0.0,0.0,0.0,0.0,0.0,0.0,0.0,0.0,0.0,0.0,0.0,0.0,0.0,0.0,0.0,0.0,0.0,0.0,0.0,0.0,0.0,0.0,0.0,0.0,0.0,0.0,0.0,0.0,0.0,0.0,0.0,0.0,0.0,0.0,0.0,0.0,0.0,0.0,0.0,0.0,0.0,0.0,0.0,0.0,0.0,0.0,0.0,0.0,0.0,0.0,0.0,0.0,0.0,0.0,0.0,0.0,0.0,0.0,0.0,0.0,0.0,0.0,0.0,0.0,0.0,0.0,0.0,0.0,0.0,0.0,0.0,0.0,0.0,0.0,0.0,0.0,0.0,0.0,0.0,0.0,0.0,0.0,0.0,0.0,0.0,0.0,0.0,0.0,0.0,0.0,0.0,0.0,0.0,0.0,0.0,0.0,0.0,0.0,0.0,0.0,0.0,0.0,0.0,0.0,0.0,0.0,0.0,0.0,0.0,0.0,0.0,0.0,0.0,0.0,0.0,0.0,0.0,0.0,0.0,0.0,0.0,0.0,0.0,0.0,0.0,0.0,0.0,0.0,0.0,0.0,0.0,0.0,0.0,0.0,0.0,0.0,0.0,0.0,0.06749885,-0.12275875,0.022870764,0.011556435,-0.020325786,-0.000783323,0.01623262,0.010797365,-0.043409694,-0.011191327,0.0007065463,0.015511262,-0.026424501,-0.021518584,0.0058972044,0.055283595,0.002663707,-0.0065472806,0.02782451,0.0054473267,0.055213735,-0.05949036,-0.003118636,0.03740635,0.013043511,-0.09657503,-0.0066747,0.03893998,0.0043993527,-0.02653616,0.0017494543,0.0020297775,0.00983628,-0.045667022,-0.025372423,-0.009184174,-0.03883999,-0.010848207,0.0032311003,0.01861624,0.030983003,-0.037999406,0.007780073,-0.01398487,-0.009361848,0.010651525,0.05250866,0.006244378,-0.011801738,-0.017510869,-0.024384724,0.010318303,-0.047173183,0.016929813,0.014621904,-0.004994626,0.045813687,0.025134906,-0.02608957,0.030894,-0.043026004,-0.052014325,-0.02950643,-0.015361611,0.03440741,0.0017221625,0.008990853,-0.02725703,-0.07736451,0.0324886,-0.015450569,0.010993414,0.029725326,-0.03573171,-0.018828904,-0.016408414,-0.010575981,-0.06307076,-0.031086177,-0.0403015,0.004141647,0.02447784,0.019700404,0.018495018,0.028430657,-0.008441228,-0.0058624237,-0.0010433161,-0.0019896966,-0.015129454,0.01730776,-0.02055954,-0.0034474565,0.0067810165,-0.056087613,0.047814228,0.009369471,-0.0077820257,0.0420353,0.031172786,0.0082076145,-0.0742792,-0.03963882,0.031101927,-0.012877287,-0.031883832,-0.034003936,-0.015537632,0.019816536,0.04913909,-0.0027980087,-0.05088002,0.026728088,0.05015741,0.0506887,-0.03435751,-0.054931868,-0.005762367,-0.033501808,0.02539121,-0.0595659,0.04749684,0.05093085,-0.0045670336,0.010808328,-0.013017856,0.07496454,0.044926874,-0.004920329,-0.003837063,-0.00097595,0.03445264,-0.0051735146,0.0012494657,0.004893955,0.010929683,-0.018268334,-0.0034948203,-0.0011108816,0.016684745,-0.027425561,0.0065504266,0.019858602,-0.05088292,0.025980506,0.03954479,0.020126024,-0.015565517,0.014918634,0.017213428,-0.024400286,0.055440504,0.053071458,-0.03618815,-0.041271675,-0.017093724,0.007961266,0.014543169,0.03729853,0.05212242,0.04345128,-0.0049911016,-0.021684991,-0.029175138,0.0005758433,-0.01770437,-0.0035227523,-0.027126612,0.016610188,-0.04942892,0.0003545415,-0.033752024,-0.049552925,-0.050139114,0.01714068,0.014128863,-0.0322549,0.0036511056,-0.03720887,-0.056713082,-0.010070282,-0.00009970018,-0.050464198,0.026307119,0.0059754606,-0.035283223,0.017832676,0.0025731798,-0.022019815,-0.05308783,-0.008392069,0.025411524,-0.01732668,-0.015995203,-0.006121248,-0.03204428,0.011794935,0.010765771,-0.00086533243,0.008490307,-0.011537322,-0.0020423036,0.011459349,0.00856475,0.018466778,0.009664588,0.029701363,-0.059651714,0.011215972,0.034589972,-0.006320235,-0.005460501,0.026970794,0.043841757,-0.017957306,-0.026618127,-0.008530354,-0.0119193,0.015864449,0.0004770839,0.011433901,0.046363913,-0.0476692,-0.0068232543,-0.004476798,0.0022837892,0.0065262457,-0.012875155,-0.018633889,-0.027247572,-0.06420162,-0.00063758995,-0.033132266,0.022482008,0.014586604,-0.046742726,-0.023555662,-0.0018176796,-0.043030158,-0.016262703,-0.0058296043,-0.047662444,0.014959567,-0.004170766,-0.010135284,-0.049096845,-0.025126074,-0.026220351,-0.026519312,0.033865217,-0.009779135,-0.0058327946,0.033529997,0.033750523,0.0029080156,-0.0075377245,0.06618485,-0.07091631,0.027979717,0.052948274,0.0637412,-0.03219625,-0.09308331,-0.0052642436,-0.009255971,-0.008534945,-0.050274406,-0.00906062,-0.012525695,0.0041489336,0.0020744766,0.0505839,-0.01723945,-0.023877157,-0.011117758,-0.021170057,0.066777304,-0.031153876,0.011802122,0.026320457,0.028656434,-0.029529348,-0.04341812,-0.0526883,-0.04776664,0.0051401625,0.032496188,0.037859183,0.040439606,-0.047398575,0.031916834,0.029942749,-0.043174557,-0.04069702,-0.0042839083,0.07870969,0.0037406222,-0.056699324,-0.019910172,0.02790864,0.0066041304,0.05870286,0.00006587315,-0.021120803,-0.021029396,-0.004910467,0.00009540396,0.015751116,-0.0358642,0.0034756595,0.04318298,0.0619842,-0.019430226,0.06825143,-0.047287673,0.034750603,-0.020389223,-0.07032808,-0.040562168,0.049164955,0.06659162,0.07445781,0.023941318,0.013285508,-0.00087931385,0.027112845,-0.05587056,-0.06057942,0.026046537,0.027455213,-0.007906972,-0.013700354,-0.003540102,-0.027897103,0.011270462,0.02124512,-0.044686735,0.071926735,-0.045562785,0.04689839,0.0112291,0.023275709,0.03841658,0.027170667,0.028361732,-0.017662514,0.02777991,-0.018307125,0.026949959,-0.04108265,0.03810379,0.0055329786,-0.006536842,-0.043004785,0.02093908,-0.039891515,0.0009777637,-0.055448327,-0.015324667,0.026157983,0.035912324,0.009163147,0.012901157,-0.0144295655,-0.04344126,-0.010507392,0.0331447,-0.038928725,-0.019629037,0.028770128,-0.062418528,0.023441067,-0.035832178,-0.037675887,0.036460046,0.02589981,-0.00226258,0.06093225,0.005598252,0.04723496,0.10442056,-0.016950557,0.026699236,0.045781802,0.06167713,0.017175036,-0.056291193,0.023447365,-0.0020232794,0.03239042,0.055553105,-0.020671086,0.037619937,-0.010157161,-0.07513125,-0.0046886904,-0.022738762,0.049196787,0.003036675,-0.023390245,0.002373707,0.011750466,0.039879337,0.030625325,-0.046542514,0.030208949,-0.041418914,0.036996946,0.02710921,-0.0071894876,0.014324967,-0.031922735,-0.05843302,0.012453511,0.051412452,0.02132995,0.01143066,-0.030927554,0.043051723,-0.04852505,-0.036716364,0.05163967,-0.017354164,-0.00035627882,0.046855558,-0.050973512,-0.045345232,-0.0063830228,-0.023929961,0.040929504,0.01951402,-0.09009032,0.05241661,-0.0048616203,0.013180932,-0.01105706,-0.07799063,-0.004320253,-0.012683475,0.0115152905,0.061234307,0.03863823,0.0033942445,0.018057877,-0.048517488,-0.024687566,-0.0012426102,0.009747867,0.025526462,0.03759619,0.0026771354,-0.027119283,0.0006515138,0.040541284,0.0018968688,-0.06825765,-0.050191924,0.03512189,0.062479254,-0.038689356,0.025417678,0.062124643,0.026489263,-0.017120257,0.040294636,0.019420803,0.025594715,0.01822801,0.03322244,0.0035183697,0.021922503,-0.009110655,-0.034863662,-0.01201429,-0.0201316,-0.03326998,-0.054764844,0.03882871,-0.01912293,-0.014527261,0.017235907,-0.016639221,-0.060746133,-0.025450146,-0.0034527683,0.012021039,-0.07485919,0.011696032,-0.059347622,0.058534082,-0.030287046,-0.044287637,-0.010761102,0.09300517,0.028591566,-0.03350708,-0.006316615,-0.056780417,0.031111754,0.0124492245,-0.032717876,0.022023363,0.03614941,-0.06128414,-0.0025471377,-0.0031440856,0.013736665,-0.026150301,0.056067728,0.009588515,0.023351459,0.043295544,0.055343054,-0.099467784,0.0076442007,-0.0024893233,-0.009231185,0.012541809,0.014324093,0.0004709098,-0.042708352,-0.012391255,0.008936023,0.019447032,-0.032864958,-0.013990065,-0.00094000815,0.059625342,0.0023838496,-0.019694127,0.03219247,-0.01366042,0.050361738,-0.049642637,0.001956786,0.038039178,0.0031030735,-0.08431071,-0.00003618301,0.039200615,0.00803478,-0.018948147,-0.013335166,0.013410386,-0.0035681103,-0.04180343,-0.021721069,-0.011959001,-0.033980247,-0.0066545717,0.006762496,0.007728281,0.02562508,-0.035500303,0.0100981025,0.002120268,0.016679067,0.010948658,0.042102356,-0.005772872,-0.00025164813,-0.008913029,-0.022530809,0.013275056,-0.03560055,0.025392707,0.0010906031,0.00860757,0.033310782,0.02709139,-0.02305343,0.021925673,-0.028159285,-0.031793933,-0.02336131,-0.006613253,0.031242056,0.012881503,-0.00088240986,-0.008912678,-0.056365233,0.03277763,-0.028171409,0.0033387616,0.028236654,-0.013125221,-0.029881714,-0.0028556914,0.0033372436,-0.0399539,-0.048909053,-0.021955667,0.014165811,0.012675014,0.006862892,0.013311838,0.018274084,-0.0025221389,-0.00777268,-0.00244915,0.006355697,-0.0059239916,0.01905007,-0.015644418,-0.0044295215,0.003985617,-0.065084234,0.04174333,0.030750792,-0.005318795,0.039223846,0.018127175,0.0073729157,-0.045894887,-0.045410033,0.027123254,-0.009185341,-0.04419191,-0.037045702,-0.01284071,0.015786896,0.04114381,0.015983121,-0.04700593,0.026235238,0.05448067,0.053204622,-0.0434709,-0.027340364,0.009333849,-0.05344273,0.023739655,-0.05372113,0.049201913,0.036838066,-0.0018053707,0.012484807,-0.0019368982,0.060543414,0.041506857,0.0067583416,-0.007309208,0.005682574,0.033372145,-0.024804566,-0.0034030718,0.008266316,-0.00028009812,-0.008057356,-0.009689658,-0.0049133324,0.021094186,-0.017291551,0.009148871,0.0203715,-0.044013165,0.0072055864,0.04519983,0.021132242,-0.0074086133,-0.001357867,0.03601907,-0.025230411,0.059433997,0.052731846,-0.042730838,-0.054969847,-0.012761364,0.018968713,0.0043137423,0.023520121,0.047715113,0.029632332,-0.001348999,-0.014880017,-0.0099298945,0.0017296732,-0.008412964,-0.01776365,-0.014330628,0.004492401,-0.038252432,0.00462717,-0.015399987,-0.049081113,-0.042493362,0.026770325,-0.0010381538,-0.05820593,-0.008001599,-0.01457335,-0.052172188,-0.0022820022,0.0048333746,-0.051973175,0.017290682,-0.0002646996,-0.022611333,-0.0026386653,0.023430698,-0.011891732,-0.038986072,-0.0009766339,0.015660288,-0.014429773,-0.009371143,-0.004224722,-0.026235646,0.005594254,0.0067052864,0.0099694645,0.014537014,-0.0033940924,0.018317752,0.027405499,-0.010428872,0.029369636,0.0039154743,0.012567876,-0.0505028,0.009547247,0.033024162,0.0018679117,-0.0033445861,0.028176391,0.02863274,-0.009121299,-0.02940786,-0.015103233,-0.010157147,0.013118953,-0.0032249843,0.033855412,0.040549416,-0.041992735,0.0006671479,-0.0034684865,0.008563323,0.003335393,-0.016378088,-0.0074429596,-0.02571822,-0.0410195,-0.010159426,-0.028132906,0.026665032,-0.0007339209,-0.035330843,-0.02161022,0.002115174,-0.038263097,-0.0056480975,0.0025412673,-0.036435224,0.007908266,0.002497203,-0.020953925,-0.040720765,-0.011599425,-0.035985325,-0.027789496,0.022253385,-0.005292177,0.00026691201,0.027759327,0.034857202,0.0017413142,-0.0062994924,-0.049328793,-0.047415826,0.03575211,-0.077731416,-0.051247288,-0.041234694,0.05817406,-0.060282446,-0.042949855,0.049398728,0.030725965,0.019541396,0.076380916,-0.028890887,-0.003310855,-0.015098292,-0.05232957,0.07380571,-0.00350087,0.06307982,-0.018797139,0.057419777,-0.09033566,0.046918366,0.010506268,-0.11239504,0.051294886,-0.026607573,0.09238912,0.021017406,-0.054178186,0.010455162,0.035092857,0.052797873,-0.057110645,-0.07396055,0.08525952,0.07042352,-0.05904341,-0.08176305,0.051389467,-0.026761958,0.001217774,0.00999923,0.03627268,-0.005359914,0.011135837,-0.019652886,0.022337025,-0.028823376,-0.037297025,0.022592572,0.00042045055,0.05146744,-0.04979606,-0.060063597,0.042491827,-0.0039800676,0.024076045,-0.020014415,-0.04938809,0.04476514,0.056550063,-0.08178622,0.12602477,0.009907397,-0.08697064,0.07716305,-0.019024245,-0.04437443,0.011963678,0.07311258,-0.035364103,0.092726685,0.04273559,-0.015615127,0.020311702,0.0026499422,0.0517838,0.0033296894,-0.039189395,-0.10837435,-0.07554891,-0.0017147508,-0.012619714,-0.09242944,-0.020296337,-0.045904923,-0.061399467,-0.036216956,0.020569883,-0.009048782,-0.0434404,0.030552724,-0.051726326,0.02737913,0.004793895,-0.008821539,0.046910893,-0.045632377,0.04087105,0.045160722,-0.010599263,0.05646378,0.02193575,-0.028959526,0.0020160533,0.06364452,0.042353477,0.013386366,0.009915691,-0.10010997,-0.02716127,-0.008319028,0.041842356,-0.07519512,-0.10939098,0.08600232,0.067383155,0.032856807,0.06798185,0.056996748,0.033638727,-0.05560755,-0.0107360175,0.07927845,-0.0027793902,0.04619111,0.00040541132,-0.030222246,0.01819204,0.085435875,0.0013641656,-0.054238573,-0.03104492,0.041695505,0.0035937754,-0.019008156,-0.016845616,0.078422055,0.03508526,-0.07457074,-0.0032065501,-0.03815301,-0.071448505,-0.038477935,-0.09317958,-0.0362963,0.07872236,0.0008725082,0.025859715,-0.024991736,-0.069692716,0.017516874,-0.08929589,0.005337408,0.001986573,-0.013192547,-0.025932772,0.013991405,0.105297185,0.0012500405,0.019507503,0.08242695,0.014059057,-0.06178943,-0.030121556,0.020893557,0.10204151,-0.014498003,0.070611194,0.053260174,-0.00073474966,-0.09692236,0.025409043,-0.040684976,-0.095290996,0.044094875,0.054317776,0.038716186,0.07555275,0.08572934,-0.016814526,-0.008949818,-0.037533533,0.10861214,-0.041613124,-0.015147188,0.061189983,-0.040668286,-0.06817347,-0.053003907,-0.07711157,-0.018186389,-0.10951135,-0.056481436,-0.0899576,-0.0023100257,0.08405952,-0.050657965,0.052802105,0.030241953,-0.034136046,-0.01379522,0.07749479,-0.07671131,-0.032693684,0.03554419,0.03000629,-0.038139954,-0.02192438,-0.081574194,-0.035696432,-0.037744638,-0.035154805,-0.093283124,-0.06567956,-0.037828583,0.020521814,-0.02631111,0.08790201,-0.028458472,0.015295185,-0.01629248,-0.0021163162,-0.077985786,0.025800295,0.045454156,0.06273058,-0.083220445,0.020558933,-0.05848657,-0.0125346305,-0.06412743,0.07164072,0.07038277,0.048555285,-0.0663697,-0.094363295,0.057593584,-0.09645232,0.03883142,-0.033343446,-0.05512541,0.03399091,0.017931016,-0.103526965,0.045783814,-0.121095814,0.054051306,0.014065462,0.041609008,-0.061405573,0.033267386,0.051392224,-0.08728343,0.028458742,-0.041484643,-0.0022966317,-0.021541802,0.055713944,-0.007734358,-0.06009832,0.010173576,0.021791749,-0.018315498,-0.07872998,-0.03609648,0.013320516,-0.02302944,0.033246983,-0.0025491966,-0.015625598,-0.041970138,-0.030777065,-0.001385906,-0.013301991,0.004233737,-0.040727366,0.010191755,0.051429205,0.030866444,-0.016005712,-0.0726741,-0.04652674,-0.025593469,0.029402833,0.028037634,0.014376549,-0.028274799,0.0705816,0.043044608,-0.024096668,-0.05531805,0.02901098,0.06240396,0.041396186,0.011122283,-0.0022132231,0.011674409,-0.013912406,0.05163454,0.012616133,-0.031946067,-0.0028992838,0.00613882,0.010204565,-0.02947085,-0.06120377,-0.0074443594,0.034667693,0.051438153,0.021956654,0.039046418,-0.07253047,0.006685702,-0.007765229,-0.016169384,-0.020389661,0.08904692,0.0028120868,0.04870684,0.032212205,0.05197552,0.06836524,0.0077946177,-0.041845433,-0.029128412,0.030360028,0.030276421,0.028557032,0.011673793,-0.024184475,-0.012660802,0.01473897,0.039203048,-0.03106234,0.03139813,-0.03990134,0.051304176,-0.0070046107,0.021609383,0.058103114,0.021183763,0.03172694,-0.048384022,0.0059067183,0.002316724,0.04705221,-0.06751998,0.07948977,-0.04540634,0.022269445,-0.059269752,0.00021638186,-0.045089293,-0.013745439,-0.008869425,-0.020876672,0.014246926,0.049515087,0.019403514,0.03256199,0.030382214,-0.008682957,-0.0060291556,-0.019423228,-0.030056268,0.022888275,0.055400416,-0.0721547,0.017726451,-0.025998032,-0.014431032,0.035106104,0.015960215,0.020046085,-0.01882374,0.005671946,0.061378106,0.0701054,0.0039549763,0.0019800304,-0.008978775,0.054829672,0.0037322917,-0.05247286,0.00876684,-0.016818095,0.012955237,0.032113597,-0.023447135,0.03644879,0.051362738,-0.040979248,-0.018037433,-0.041993678,0.023458797,0.0128329815,-0.022108018,-0.0020825951,-0.05820519,0.02459533,0.025477568,-0.0061518974,0.03082472,-0.0069381446,0.033073347,-0.033078264,0.00023004478,0.047811087,-0.04383609,-0.05535976,0.04818181,0.03790683,0.016935874,0.016052486,-0.033707738,0.03848486,-0.024824388,-0.038769145,0.027351188,0.013584145,-0.020057742,-0.009780061,-0.031617265,-0.029259644,-0.032821372,-0.0028709336,0.05661362,0.02212625,-0.048242856,0.03465847,-0.043454733,0.021973144,-0.024524122,-0.06439785,-0.05912971,0.041349187,-0.004967023,0.053281773,0.015472716,-0.0076110475,0.02292683,-0.04336517,-0.00431173,0.0018041345,0.01747142,0.035501495,0.056586403,0.027646815,-0.017501056,-0.006815431,0.039020527,0.03623434,-0.07339153,-0.06314561,0.031287592,-0.0057424875,-0.04918375,0.04351684,0.0284362,0.036436584,0.04408579,0.056033242,0.014911885,0.032933753,0.0010511433,-0.006114792,0.0059255706,0.08834756,-0.019612921,-0.024176091,0.015149428,0.017374547,-0.016769467,-0.0422783,0.021623882,-0.016293481,-0.0020259665,0.048009306,0.008033172,-0.030111331,-0.035348505,0.008737131,-0.009586347,-0.0029571846,-0.028346665,-0.037243865,0.03647817,-0.017996395,0.033038422,-0.05760026,0.06603133,0.012293914,-0.009651506,-0.06861231,-0.018907223,0.03811571,-0.0073761805,-0.012971761,0.0037287753,0.028599797,-0.054497294,0.037934348,-0.028640676,0.033176564,-0.007643012,0.027284933,-0.023342423,0.0017767757,0.04399227,0.044730067,-0.07465922,0.010531039,0.023620516,0.017487282,0.00032816496,-0.03820368,0.010496203,-0.009011502,0.0033960782,-0.022932129,0.011886912,-0.014554408,-0.017508043,-0.0026305998,0.047697645,-0.013390948,-0.016590448,0.004250399,-0.012223662,0.04365404,-0.016332906,0.012853726,0.02511771,0.0072176433,-0.041356426,-0.016228376,-0.0077567734,-0.015434608,0.00523897,0.015775515,0.014533553,0.01694788,-0.042034093,0.000049184757,0.004287965,-0.023536913,-0.026875094,0.0019068008,0.032205116,0.023901766,-0.02047738,-0.0026547012,0.021919081,-0.009326879,0.027667021,0.013666802,-0.0020995752,-0.01215356,-0.0057425275,0.0014755244,0.019516785,-0.040429257,0.020405663,0.016964175,0.029829172,0.0025809472,0.03844343,-0.035982896,0.03425087,-0.027846083,-0.021113148,-0.031617947,0.018210554,0.031370707,0.024421409,0.020726794,-0.0030087125,-0.026510134,0.032616355,-0.026737267,-0.016857991,0.0146583365,-0.011918375,0.0071004503,-0.0066525834,-0.0031316984,-0.04296185,-0.0059316615,-0.012457117,-0.02006693,0.03282836,-0.002070891,0.013426888,-0.0025543359,0.0053517465,0.016330825,-0.011313083,0.0148206735,-0.007771102,0.021899888,-0.011073678,0.0052650054,-0.00864687,-0.0029850004,-0.0031250655,0.006405358,-0.021378351,0.0345752,0.008510988,-0.0005368045,-0.03349198,-0.018690757,0.015745418,0.0045557865,-0.0027635251,-0.013630732,-0.0018992156,-0.014153693,0.016291752,-0.0018879386,-0.04531764,0.016923288,0.03638249,0.0017134672,-0.0030235727,-0.031773508,-0.020456493,-0.0029809203,0.014363395,-0.022088917,0.04979297,0.011201665,0.021673998,0.036588997,-0.0011672509,0.043034285,0.033812046,0.022019913,0.007088864,-0.022056933,0.022451969,-0.0035273307,0.035369605,0.018955963,0.010554158,0.012957601,-0.0014912729,-0.032073915,0.0019601379,-0.015085946,0.0148128215,0.006088716,-0.04285434,0.00072576577,0.02401683,0.032706123,0.0013109638,-0.0006120381,0.02057346,-0.021200335,0.05336444,0.041156344,-0.013381188,-0.012615646,-0.0071825325,-0.025959574,0.014373243,0.035798673,0.031433165,0.015068548,-0.015623302,0.010623138,-0.028257355,-0.025085391,0.0152200265,0.00054511306,-0.0070774523,0.011584153,-0.05136759,-0.010514613,-0.015154122,-0.026554268,-0.009938884,0.024595333,-0.015532202,0.006235553,-0.0074627944,-0.015230358,-0.03242241,-0.03922662,-0.009275771,-0.018871391,0.023698244,0.026224218,-0.0031587007,-0.010135382,0.008792839,-0.023878105,-0.02586763,0.0025397902,0.017539894,-0.002424438,0.0064069186,0.002009669,-0.021582427,-0.0033633783,0.04420413,0.008709422,-0.030613214,-0.032560706,0.017751804,0.02119585,-0.018484056,0.02305932,0.030395769,0.017788384,-0.020184552,0.016371313,0.030779008,0.013946505,-0.003234155,0.012542086,0.008718523,0.010688995,-0.009490774,-0.0006563024,-0.012432469,0.0045569185,-0.014144149,-0.0049699834,0.027128277,-0.020148225,-0.0058543347,0.010307889,-0.01031418,-0.024408408,-0.018200763,-0.005373381,-0.006141861,-0.051473185,0.0131669855,-0.04117717,0.023603916,-0.004903024,-0.050356627,-0.024228888,0.027830515,-0.0063762306,-0.013139863,-0.0032023834,-0.026440755,0.014221355,-0.00030993338,-0.01701884,-0.008588539,0.007226761,-0.030481566,0.004273638,0.0063968142,-0.0018375423,-0.026876008,0.039474428,0.021747585,0.0060885428,0.0064718043,-0.020890672,-0.05795608,0.025970211,0.046641197,-0.073889576,-0.0063102897,0.02287822,-0.021029433,-0.031446528,0.02668201,0.03523323,0.012950538,0.016131481,0.0044315187,-0.011563667,0.032385316,0.011203667,0.046903066,0.034583498,-0.0024288222,0.008691362,0.016135857,0.026315862,0.0179742,-0.023568874,-0.08220107,0.023504114,0.03413067,0.01808418,0.021409297,0.009928044,0.010898788,-0.038948774,-0.011703567,-0.036625877,-0.03786311,0.01201566,0.04808352,-0.036030445,-0.028101442,0.009455954,-0.039370112,0.0015490312,0.016325563,0.022462571,-0.054066353,0.03446663,0.040399555,-0.021917736,0.0068067946,-0.0029276162,0.07476079,0.017019497,0.025069173,0.03249098,-0.062663294,-0.0026141726,-0.010640823,0.006977341,0.02171642,-0.0108556785,0.009884976,-0.0034695826,-0.049013596,0.01364341,-0.06496575,0.0031974681,-0.06095178,-0.08471398,0.016789354,0.017831542,0.038447835,-0.02321219,-0.061312426,-0.019756515,-0.021221284,-0.009219827,-0.04064693,-0.0028745832,-0.038641457,0.005669894,-0.006210969,0.011105669,-0.029028032,-0.014574444,-0.018673796,-0.039641682,-0.032705296,-0.042388253,0.06260163,0.028486768,0.014480531,-0.025707502,0.022917794,-0.061870884,0.0169989,-0.0003671919,0.07052396,0.021795232,0.04884251,-0.004641786,-0.015055246,0.000703174,-0.02119688,-0.0017274405,-0.03298302,-0.029658435,-0.0024391343,0.039492022,0.037031457,0.041650195,-0.0062186248,-0.0069334027,-0.020657768,0.092070796,-0.0040746643,0.010890087,-0.0130387675,-0.035501786,-0.00053039,-0.02354046,0.044934947,0.0026179664,-0.0535087,-0.01588186,0.0025381404,0.009037083,0.035909675,0.003845224,0.03731027,0.039311517,0.03574517,-0.0010661166,0.008622212,-0.041582953,0.038738884,-0.02208215,-0.016219994,0.06717608,0.022490613,0.048105124,-0.013341368,-0.013831641,-0.023506649,0.0018393537,0.048383366,0.0016190497,-0.024681145,0.032221097,-0.00652571,-0.043679137,0.010737469,0.02531167,-0.013417313,-0.047530275,0.05358843,0.06140372,0.007585241,0.029433519,0.017437521,-0.012043399,-0.013546816,-0.026490781,-0.019733412,0.015548441,-0.03637344,-0.044455618,0.042751797,0.028330754,-0.039973635,0.035875317,-0.015314984,0.004414032,-0.05225158,-0.019400204,0.056160443,-0.029708305,0.048462283,-0.06694621,0.028126614,0.046568315,0.027325086,-0.005140807,-0.002889665,-0.012064374,-0.023931276,-0.01670771,0.006260438,-0.002362702,-0.046406277,-0.014140909,0.040768385,-0.050953574,-0.010684902,-0.036081824,-0.034201853,0.010629492,0.04663868,0.0004732754,0.06248988,0.0016450841,-0.0060028965,-0.001430684,0.022894954,-0.004333467,0.0019621418,-0.026744066,-0.015489677,-0.025458805,0.018839667,-0.021338893,0.011967826,-0.0063144416,-0.027301861,-0.032482926,0.019150516,0.031730723,-0.013384462,0.020165646,-0.0055815377,0.05793135,0.013177676,-0.0027611624,0.033336222,0.004968855,-0.032374322,-0.011957613,0.03330422,0.0034869509,0.0057072164,-0.02871805,0.017003626,-0.04045872,-0.022872055,0.028857183,-0.06390459,-0.012607183,-0.06046498,-0.041831937,-0.007894558,0.05443337,-0.02952628,-0.004201707,-0.0052239955,0.007852939,-0.037111495,-0.012823104,0.025136102,-0.062082384,0.022352101,-0.025826637,-0.044252668,0.015118144,0.0037650263,0.0039818967,-0.02033719,0.03937024,-0.08408049,0.0061367503,0.0077249026,-0.006068996,0.011508557,0.0053109014,0.0032881727,-0.030120833,-0.0014708805,0.0071239476,0.021459898,-0.028014412,-0.020332256,-0.00016195062,0.052154236,-0.0097269565,-0.008212069,0.021105338,-0.008418311,0.052096885,-0.030356213,0.004245648,0.031116778,-0.00019269864,-0.068584554,0.0003911139,0.024370253,0.00093947403,0.0046329917,-0.0069730193,0.006966069,0.0042338064,-0.045095332,-0.018603139,-0.0067830463,-0.027821308,-0.00517999,0.00025760828,0.0071036154,0.019253151,-0.021381894,0.0119636385,0.008037702,0.0031653123,0.0078945495,0.018736735,-0.003098096,-0.002314837,-0.020557595,-0.016060222,0.009054816,-0.030998075,0.023459373,-0.0020566431,0.010223684,0.012130887,0.020546919,-0.018636527,0.019240104,-0.021270867,-0.013715098,-0.025129268,-0.0006878188,0.033275668,0.009243246,0.0054130233,-0.013050196,-0.05124665,0.03220501,-0.021923639,0.0028274055,0.03267487,-0.013807243,-0.010002571,-0.009623315,0.0021875454,-0.038102508,-0.02971744,-0.027647523,0.01183705,0.009993031,0.004662669,0.0024613475,0.009787707,-0.0053721103,-0.007865538,-0.0073143905,0.0071993154,-0.009405234,0.027123451,-0.016096892,-0.010032593,0.015877437,-0.066535324,0.030419456,0.023247967,-0.012639183,0.03459459,0.006059043,0.017932102,-0.0300545,-0.037980862,0.035918176,-0.011962235,-0.020571545,-0.034223076,-0.012597052,0.0040016267,0.037393093,0.008771814,-0.053651374,0.031020436,0.037648838,0.043987893,-0.03423186,-0.032973945,-0.0007359398,-0.057056643,0.026462689,-0.04300625,0.042233847,0.024505379,-0.0013352083,0.007899982,0.007927717,0.055705044,0.03856905,0.0026999353,-0.0133083435,0.008320754,0.02339442,-0.012100171,0.009660822,0.0107252635,0.027350305,-0.004218792,-0.011384995,-0.00046577674,0.024371125,-0.014959744,0.008632594,0.015446451,-0.038785484,0.0036617203,0.05029024,0.017538521,-0.016137209,0.0014971081,0.02442638,-0.028656727,0.04862325,0.048879884,-0.030095793,-0.049693704,-0.0014363601,0.014603758,-0.00021934841,0.017015688,0.022718538,0.023058644,-0.0011863995,-0.013734903,-0.007086733,-0.010893365,-0.0009772601,0.007504398,-0.012727498,-0.0023960695,-0.034029257,0.012844178,-0.014570132,-0.041225985,-0.036815714,0.036201596,0.0048245303,-0.046378393,-0.003960701,-0.015573774,-0.03858366,-0.004839931,0.00538321,-0.041188195,0.024348583,-0.0074291397,-0.023979057,-0.008946258,0.011827729,-0.0027439427,-0.033353373,-0.0020844992,0.012435505,-0.013910306,-0.0036884078,0.0011207396,-0.020330567,0.0015067661,0.013132707,0.0070916475,0.008201692,-0.006244544,0.015845526,0.017496424,-0.0073605585,0.018653102,0.005379255,0.0045936275,-0.03825905,0.0057753334,0.026517062,0.01187566,0.00044907862,0.026790045,0.02398672,-0.00407981,-0.021749234,-0.0075638304,-0.01773027,0.008529812,-0.0036197263,0.021639252,0.03174709,-0.024009468,-0.011691463,-0.007436251,-0.0014706696,0.004149425,-0.009740225,-0.006061011,-0.018208457,-0.03644683,0.0001871915,-0.024482278,0.021918027,0.00086667435,-0.0336808,-0.0128919175,0.0010979772,-0.027020698,-0.007862566,-0.0015202308,-0.035890173,0.011199565,0.002019027,-0.01211836,-0.033024736,-0.013690436,-0.020756101,-0.017609661,0.0074277353,0.0070048436,-0.00814119,0.02347028,0.020894816,0.0030886831,-0.0088816555,0.0,0.0,0.0,0.0,0.0,0.0,0.0,0.0,0.0,0.0,0.0,0.0,0.0,0.0,0.0,0.0,0.0,0.0,0.0,0.0,0.0,0.0,0.0,0.0,0.0,0.0,0.0,0.0,0.0,0.0,0.0,0.0,0.0,0.0,0.0,0.0,0.0,0.0,0.0,0.0,0.0,0.0,0.0,0.0,0.0,0.0,0.0,0.0,0.0,0.0,0.0,0.0,0.0,0.0,0.0,0.0,0.0,0.0,0.0,0.0,0.0,0.0,0.0,0.0,0.0,0.0,0.0,0.0,0.0,0.0,0.0,0.0,0.0,0.0,0.0,0.0,0.0,0.0,0.0,0.0,0.0,0.0,0.0,0.0,0.0,0.0,0.0,0.0,0.0,0.0,0.0,0.0,0.0,0.0,0.0,0.0,0.0,0.0,0.0,0.0,0.0,0.0,0.0,0.0,0.0,0.0,0.0,0.0,0.0,0.0,0.0,0.0,0.0,0.0,0.0,0.0,0.0,0.0,0.0,0.0,0.0,0.0,0.0,0.0,0.0,0.0,0.0,0.0,0.0,0.0,0.0,0.0,0.0,0.0,0.0,0.0,0.0,0.0,0.0,0.0,0.0,0.0,0.0,0.0,0.0,0.0,0.0,0.0,0.0,0.0,0.0,0.0,0.0,0.0,0.0,0.0,0.0,0.0,0.0,0.0,0.0,0.0,0.0,0.0,0.0,0.0,0.0,0.0,0.0,0.0,0.0,0.0,0.0,0.0,0.0,0.0,0.0,0.0,0.0,0.0,0.0,0.0,0.0,0.0,0.0,0.0,0.0,0.0,0.0,0.0,0.0,0.0,0.0,0.0,0.0,0.0,0.0,0.0,0.0,0.0,0.0,0.0,0.0,0.0,0.0,0.0,0.0,0.0,0.0,0.0,0.0,0.0,0.0,0.0,0.0,0.0,0.0,0.0,0.0,0.0,0.0,0.0,0.0,0.0,0.0,0.0,0.0,0.0,0.0,0.0,0.0,0.0,0.0,0.0,0.0,0.0,0.0,0.0,0.0,0.0,0.0,0.0,0.0,0.0,0.0,0.0,0.0,0.0,0.0,0.0,0.0,0.0,0.0,0.0,0.0,0.0,0.0,0.0,0.0,0.0,0.0,0.0,0.0,0.0,0.0,0.0,0.0,0.0,0.0,0.0,0.0,0.0,0.0,0.0,0.0,0.0,0.0,0.0,0.0,0.0,0.0,0.0,0.0,0.0,0.0,0.0,0.0,0.0,0.0,0.0,0.0,0.0,0.0,0.0,0.0,0.0,0.0,0.0,0.0,0.0,0.0,0.0,0.0,0.0,0.0,0.0,0.0,0.0,0.0,0.0,0.0,0.0,0.0,0.0,0.0,0.0,0.0,0.0,0.0,0.0,0.0,0.0,0.0,0.0,0.0,0.0,0.0,0.0,0.0,0.0,0.0,0.0,0.0,0.0,0.0,0.0,0.0,0.0,0.0,0.0,0.0,0.0,0.0,0.0,0.0,0.0,0.0,0.0,0.0,0.0,0.0,0.0,0.0,0.0,0.0,0.0,0.0,0.0,0.0,0.0,0.0,0.0,0.0,0.0,0.0,0.0,0.0,0.0,0.0,0.0,0.0,0.0,0.0,0.0,0.0,0.0,0.0,0.0,0.0,0.0,0.0,0.0,0.0,0.0,0.0,0.0,0.0,0.0,0.0,0.0,0.0,0.0,0.0,0.0,0.0,0.0,0.0,0.0,0.0,0.0,0.0,0.0,0.0,0.0,0.0,0.0,0.0,0.0,0.0,0.0,0.0,0.0,0.0,0.0,0.0,0.0,0.0,0.0,0.0,0.0,0.0,0.0,0.0,0.0,0.0,0.0,0.0,0.0,0.0,0.0,0.0,0.0,0.0,0.0,0.0,0.0,0.0,0.0,0.0,0.0,0.0,0.0,0.0,0.0,0.0,0.0,0.0,0.0,0.0,0.0,0.0,0.0,0.0,0.0,0.0,0.0,0.0,0.0,0.0,0.0,0.0,0.0,0.0,0.0,0.0,0.0,0.0,0.0,0.0,0.0,0.0,0.0,0.0,0.0,0.0,0.0,0.0,0.0,0.0,0.0,0.0,0.0,0.0,0.0,0.0,0.0,0.0,0.0,0.0,0.0,0.0,0.0,0.0,0.0,0.0,0.0,0.0,0.0,0.0,0.0,0.0,0.0,0.0,0.0,0.0,0.0,0.0,0.0,0.0,0.0,0.0,0.0,0.0,0.0,0.0,0.0,0.0,0.0,0.0,0.0,0.0,0.0,0.0,0.0,0.0,0.0,0.0,0.0,0.0,0.0,0.0,0.0,0.0,0.0,0.0,0.0,0.0,0.0,0.0,0.0,0.0,0.0,0.0,0.0,0.0,0.0,0.0,0.0,0.0,0.0,0.0,0.0,0.0,0.0,0.0,0.0,0.0,0.0,0.0,0.0,0.0,0.0,0.0,0.0,0.0,0.0,0.0,0.0,0.0,0.0,0.0,0.0,0.0,0.0,0.0,0.0,0.0,0.0,0.0,0.0,0.0,0.0,0.0,0.0,0.0,0.0,0.0,0.0,0.0,0.0,0.0,0.0,0.0,0.0,0.0,0.0,0.0,0.0,0.0,0.0,0.0,0.0,0.0,0.0,0.0,0.0,0.0,0.0,0.0,0.0,0.0,0.0,0.0,0.0,0.0,0.0,0.0,0.0,0.0,0.0,0.0,0.0,0.0,0.0,0.0,0.0,0.0,0.0,0.0,0.0,0.0,0.0,0.0,0.0,0.0,0.0,0.0,0.0,0.0,0.0,0.0,0.0,0.0,0.0,0.0,0.0,0.0,0.0,0.0,0.0,0.0,0.0,0.0,0.0,0.0,0.0,0.0,0.0,0.0,0.0,0.0,0.0,0.0,0.0,0.0,0.0,0.0,0.0,0.0,0.0,0.0,0.0,0.0,0.0,0.0,0.0,0.0,0.0,0.0,0.0,0.0,0.0,0.0,0.0,0.0,0.0,0.0,0.0,0.0,0.0,0.0,0.0,0.0,0.0,0.0,0.0,0.0,0.0,0.0,0.0,0.0,0.0,0.0,0.0,0.0,0.0,0.0,0.0,0.0,0.0,0.0,0.0,0.0,0.0,0.0,0.0,0.0,0.0,0.0,0.0,0.0,0.0,0.0,0.0,0.0,0.0,0.0,0.0,0.0,0.0,0.0,0.0,0.0,0.0,0.0,0.0,0.0,0.0,0.0,0.0,0.0,0.0,0.0,0.0,0.0,0.0,0.0,0.0,0.0,0.0,0.0,0.0,0.0,0.0,0.0,0.0,0.0,0.0,0.0,0.0,0.0,0.0,0.0,0.0,0.0,0.0,0.0,0.0,0.04063115,-0.072319224,-0.0052238367,0.012153865,0.07773303,0.032153234,-0.09017524,-0.01384054,0.0276735,-0.01757311,-0.0798642,-0.03737624,-0.00033709605,-0.0058190054,0.011027679,0.0048924913,-0.012125465,-0.023087453,-0.027667161,-0.009779047,0.074160084,-0.0014238091,-0.025831448,0.028239703,0.045595746,0.008154793,-0.06881391,-0.04371422,-0.031255934,0.0022717067,0.026305923,0.020836474,0.053261574,-0.06115519,0.058623742,0.06881369,-0.039645158,-0.04114382,0.0039880755,0.060671117,-0.009259777,-0.04864132,-0.0038450947,0.027865961,-0.02136987,0.02529142,0.021988599,-0.03780682,0.011043263,-0.049670693,0.0037541764,-0.0385088,-0.015595647,-0.023646174,-0.033864595,0.055179205,-0.050699044,0.0043008453,-0.023953363,0.048708748,0.008590875,-0.020778673,-0.028887246,0.04596541,0.030912325,0.080640316,0.027405363,0.02369629,0.048054516,0.001521436,-0.06137004,-0.06607686,0.06467346,0.038932152,0.02994402,0.003969234,-0.002871684,-0.002290677,-0.008615664,0.04848331,-0.037862338,0.037227478,-0.054962244,0.022501336,-0.015658492,0.0054493304,0.051695906,0.020629685,0.053728957,-0.026063906,0.070866756,-0.076786414,0.039728906,-0.03930842,0.031387217,0.020111702,0.042364724,-0.04775812,-0.004723757,-0.041069865,0.05921883,-0.053731125,0.008997619,0.050692055,0.030894227,0.0099827135,-0.0010960614,-0.020759625,-0.07239174,-0.013829493,0.04738231,-0.076387,0.043843623,-0.0054350477,-0.04214374,-0.010661,-0.00042190214,-0.004031535,0.04910914,0.06223734,0.012467336,0.020374212,-0.047234386,0.059654526,0.04498926,-0.019556677,-0.021765687,0.017737096,0.022512479,-0.011878339,-0.03815295,-0.036113773,0.00036780155,0.025247175,0.04801172,-0.029271374,0.036281105,-0.020584542,-0.09290117,-0.013352155,-0.03786179,0.037707455,0.034968942,0.010528789,0.003924373,-0.039492384,0.032639157,0.07436273,-0.075452335,0.02931564,0.02821709,-0.02617352,-0.019635957,0.013286729,0.020839173,-0.05288173,-0.07710858,0.0172314,0.07475806,-0.02183298,-0.013874407,-0.0036030756,0.031916235,-0.016376173,-0.07272206,0.100304805,0.011945983,-0.015417404,0.009892781,-0.06052034,-0.073905684,-0.016237117,0.008095852,0.09252176,0.01675703,-0.06874922,0.035884727,0.0070498865,0.034894176,0.036048934,-0.07482831,-0.055246986,0.0016533021,-0.014291988,0.027644103,0.02364706,-0.018989583,-0.002733734,-0.037991714,-0.022156667,0.017867792,0.011321151,0.05154055,0.0273299,0.05164468,-0.025878225,-0.007989182,0.043918397,-0.0073205754,-0.016937312,-0.049656942,0.034629125,0.08584877,-0.04774736,-0.019779045,0.0718125,0.011804811,0.04785927,0.046791438,-0.012046181,0.04352925,0.03592806,0.015773125,0.00827187,0.069921516,0.01704628,-0.027135663,-0.0007521594,-0.0064952876,-0.03045582,-0.095521115,0.049156416,0.00088219147,-0.035793733,-0.02303282,0.025954317,-0.062038444,-0.051440187,-0.007144158,0.009323156,0.0032317624,-0.03267569,-0.0014697385,0.030247092,-0.026636515,-0.0038555355,-0.00012059283,0.07165498,0.072782345,-0.015617417,-0.016177801,-0.10269362,-0.000394075,0.051952317,-0.029330729,-0.052120786,0.03882889,-0.04609263,0.03208505,-0.01438487,0.031240758,0.011115656,0.04648653,-0.03104727,-0.016645746,0.05216758,0.0,0.0,0.0,0.0,0.0,0.0,0.0,0.0,0.0,0.0,0.0,0.0,0.0,0.0,0.0,0.0,0.0,0.0,0.0,0.0,0.0,0.0,0.0,0.0,0.0,0.0,0.0,0.0,0.0,0.0,0.0,0.0,0.0,0.0,0.0,0.0,0.0,0.0,0.0,0.0,0.0,0.0,0.0,0.0,0.0,0.0,0.0,0.0,0.0,0.0,0.0,0.0,0.0,0.0,0.0,0.0,0.0,0.0,0.0,0.0,0.0,0.0,0.0,0.0,0.0,0.0,0.0,0.0,0.0,0.0,0.0,0.0,0.0,0.0,0.0,0.0,0.0,0.0,0.0,0.0,0.0,0.0,0.0,0.0,0.0,0.0,0.0,0.0,0.0,0.0,0.0,0.0,0.0,0.0,0.0,0.0,0.0,0.0,0.0,0.0,0.0,0.0,0.0,0.0,0.0,0.0,0.0,0.0,0.0,0.0,0.0,0.0,0.0,0.0,0.0,0.0,0.0,0.0,0.0,0.0,0.0,0.0,0.0,0.0,0.0,0.0,0.0,0.0,0.0,0.0,0.0,0.0,0.0,0.0,0.0,0.0,0.0,0.0,0.0,0.0,0.0,0.0,0.0,0.0,0.0,0.0,0.0,0.0,0.0,0.0,0.0,0.0,0.0,0.0,0.0,0.0,0.0,0.0,0.0,0.0,0.0,0.0,0.0,0.0,0.0,0.0,0.0,0.0,0.0,0.0,0.0,0.0,0.0,0.0,0.0,0.0,0.0,0.0,0.0,0.0,0.0,0.0,0.0,0.0,0.0,0.0,0.0,0.0,0.0,0.0,0.0,0.0,0.0,0.0,0.0,0.0,0.0,0.0,0.0,0.0,0.0,0.0,0.0,0.0,0.0,0.0,0.0,0.0,0.0,0.0,0.0,0.0,0.0,0.0,0.0,0.0,0.0,0.0,0.0,0.0,0.0,0.0,0.0,0.0,0.0,0.0,0.0,0.0,0.0,0.0,0.0,0.0,0.0,0.0,0.0,0.0,0.0,0.0,0.0,0.0,0.0,0.0,0.0,0.0,0.0,0.0,0.0,0.0,0.0,0.0,0.0,0.0,0.0,0.0,0.0,0.0,0.0,0.0,0.0,0.0,0.0,0.0,0.0,0.0,0.0,0.0,0.0,0.0,0.0,0.0,0.0,0.0,0.0,0.0,0.0,0.0,0.0,0.0,0.0,0.0,0.0,0.0,0.0,0.0,0.0,0.0,0.0,0.0,0.0,0.0,0.0,0.0,0.0,0.0,0.0,0.0,0.0,0.0,0.0,0.0,0.0,0.0,0.0,0.0,0.0,0.0,0.0,0.0,0.0,0.0,0.0,0.0,0.0,0.0,0.0,0.0,0.0,0.0,0.0,0.0,0.0,0.0,0.0,0.0,0.0,0.0,0.0,0.0,0.0,0.0,0.0,0.0,0.0,0.0,0.0,0.0,0.0,0.0,0.0,0.0,0.0,0.0,0.0,0.0,0.0,0.0,0.0,0.0,0.0,0.0,0.0,0.0,0.0,0.0,0.0,0.0,0.0,0.0,0.0,0.0,0.0,0.0,0.0,0.0,0.0,0.0,0.0,0.0,0.0,0.0,0.0,0.0,0.0,0.0,0.0,0.0,0.0,0.0,0.0,0.0,0.0,0.0,0.0,0.0,0.0,0.0,0.0,0.0,0.0,0.0,0.0,0.0,0.0,0.0,0.0,0.0,0.0,0.0,0.0,0.0,0.0,0.0,0.0,0.0,0.0,0.0,0.0,0.0,0.0,0.0,0.0,0.0,0.0,0.0,0.0,0.0,0.0,0.0,0.0,0.0,0.0,0.0,0.0,0.0,0.0,0.0,0.0,0.0,0.0,0.0,0.0,0.0,0.0,0.0,0.0,0.0,0.0,0.0,0.0,0.0,0.0,0.0,0.0,0.0,0.0,0.0,0.0,0.0,0.0,0.0,0.0,0.0,0.0,0.0,0.0,0.0,0.0,0.0,0.0,0.0,0.0,0.0,0.0,0.0,0.0,0.0,0.0,0.0,0.0,0.0,0.0,0.0,0.0,0.0,0.0,0.0,0.0,0.0,0.0,0.0,0.0,0.0,0.0,0.0,0.0,0.0,0.0,0.0,0.0,0.0,0.0,0.0,0.0,0.0,0.0,0.0,0.0,0.0,0.0,0.0,0.0,0.0,0.0,0.0,0.0,0.0,0.0,0.0,0.0,0.0,0.0,0.0,0.12134701,-0.017575443,-0.05951567,0.0151315555,0.12570587,0.04192011,-0.04546263,0.088049315,0.015553832,-0.017470792,-0.0727029,0.016902128,-0.14016622,-0.007645637,0.019765738,-0.010237617,-0.039046694,-0.19225013,-0.0435026,-0.060569312,0.017115606,-0.07811177,0.012650748,-0.00846662,0.024823314,0.055545833,-0.040316094,-0.0071940217,-0.067170784,-0.028417496,-0.06075956,0.011586485,0.048459154,-0.085702896,0.0742383,0.12442429,-0.1474221,-0.12138992,0.06924088,0.09407839,0.014076056,-0.0044651367,0.05258781,-0.027522916,-0.11422595,0.104895875,-0.06301445,-0.06740256,0.0033693626,-0.055656224,-0.01360812,-0.11149135,-0.11248031,0.024842434,0.06614386,0.14150544,0.014750012,0.110464275,-0.09690123,-0.026714465,-0.030971447,-0.091110356,-0.063561805,0.054247472,-0.027982725,0.09906303,-0.0044905297,0.104650036,0.043850236,0.067489825,-0.09073122,-0.08027839,0.030025901,0.052350916,0.0011820423,0.00006793311,-0.030483482,-0.008360992,-0.0446619,0.03191338,-0.00509664,0.08224038,0.0071670506,0.116533235,0.068136916,0.032513786,0.0762785,0.08746717,0.14260633,-0.14795743,-0.027124919,-0.017676689,0.10795171,-0.12021003,0.05495424,-0.06794305,0.037183635,-0.096391745,-0.034087908,-0.060761943,0.02924361,-0.055855174,-0.12597074,0.010658307,0.022405118,0.018838182,0.017618317,0.0316973,-0.09173347,0.05227856,-0.113409586,-0.047659762,0.079819895,0.11833792,-0.062881894,-0.09112663,-0.15397723,0.010609265,0.013185555,0.011017985,-0.016139174,-0.013285504,0.05833494,0.07347264,0.07032567,0.00940773,0.1019089,0.021449536,0.0038186556,-0.047348097,-0.058475994,-0.048430607,-0.0891881,0.052307677,0.14862517,-0.06169464,0.037861194,0.04784061,-0.16690636,-0.04391434,-0.1724441,0.025210612,0.043269757,-0.05652237,0.032700356,-0.0065506725,0.060311224,0.024584996,-0.0625889,0.08287917,0.04561599,0.10660395,0.07882205,0.014550203,-0.024573557,-0.101805046,-0.08798819,-0.06340569,-0.005917638,0.050802924,0.04724093,-0.003104933,0.013937852,-0.031286757,-0.0657434,0.06487391,0.06427326,-0.102414206,0.0034137794,-0.031269588,-0.0022032363,0.006581694,-0.075501524,-0.027102826,0.09414335,-0.08549271,0.0027566869,-0.04173648,0.032810155,-0.09853555,-0.10340425,-0.026397573,-0.0741354,0.0729932,0.0018710182,0.06669074,-0.029722404,0.02398287,-0.039244343,0.029086879,0.010443608,-0.002892927,0.06294636,-0.00043975873,-0.008409983,0.031723823,-0.01023304,-0.028962243,0.027489057,-0.1387943,0.0034794342,0.105894275,0.08477706,-0.11777675,0.04879908,0.06729502,0.04012623,-0.07390867,0.024938984,0.007983163,0.16739225,0.012432429,0.050824963,0.10035833,0.10052493,-0.08317957,-0.049497847,-0.0020256506,-0.022885084,0.0020033233,-0.07569261,-0.0123612955,-0.044551115,-0.0414947,-0.04319231,0.06654664,-0.0037035844,-0.094132826,0.034663502,0.0072787497,-0.06348532,-0.051575553,0.028515628,0.06699992,-0.062235065,0.005704026,0.0052086706,0.11952664,0.013838043,-0.04775294,-0.07862126,-0.024168484,0.018351935,-0.023344148,-0.025642881,0.100782774,0.022375328,-0.11730187,0.10794524,-0.005867375,0.0463083,-0.01273604,0.0253804,0.024452401,-0.015723951,-0.049005657,0.0,0.0,0.0,0.0,0.0,0.0,0.0,0.0,0.0,0.0,0.0,0.0,0.0,0.0,0.0,0.0,0.0,0.0,0.0,0.0,0.0,0.0,0.0,0.0,0.0,0.0,0.0,0.0,0.0,0.0,0.0,0.0,0.0,0.0,0.0,0.0,0.0,0.0,0.0,0.0,0.0,0.0,0.0,0.0,0.0,0.0,0.0,0.0,0.0,0.0,0.0,0.0,0.0,0.0,0.0,0.0,0.0,0.0,0.0,0.0,0.0,0.0,0.0,0.0,0.0,0.0,0.0,0.0,0.0,0.0,0.0,0.0,0.0,0.0,0.0,0.0,0.0,0.0,0.0,0.0,0.0,0.0,0.0,0.0,0.0,0.0,0.0,0.0,0.0,0.0,0.0,0.0,0.0,0.0,0.0,0.0,0.0,0.0,0.0,0.0,0.0,0.0,0.0,0.0,0.0,0.0,0.0,0.0,0.0,0.0,0.0,0.0,0.0,0.0,0.0,0.0,0.0,0.0,0.0,0.0,0.0,0.0,0.0,0.0,0.0,0.0,0.0,0.0,0.0,0.0,0.0,0.0,0.0,0.0,0.0,0.0,0.0,0.0,0.0,0.0,0.0,0.0,0.0,0.0,0.0,0.0,0.0,0.0,0.0,0.0,0.0,0.0,0.0,0.0,0.0,0.0,0.0,0.0,0.0,0.0,0.0,0.0,0.0,0.0,0.0,0.0,0.0,0.0,0.0,0.0,0.0,0.0,0.0,0.0,0.0,0.0,0.0,0.0,0.0,0.0,0.0,0.0,0.0,0.0,0.0,0.0,0.0,0.0,0.0,0.0,0.0,0.0,0.0,0.0,0.0,0.0,0.0,0.0,0.0,0.0,0.0,0.0,0.0,0.0,0.0,0.0,0.0,0.0,0.0,0.0,0.0,0.0,0.0,0.0,0.0,0.0,0.0,0.0,0.0,0.0,0.0,0.0,0.0,0.0,0.0,0.0,0.0,0.0,0.0,0.0,0.0,0.0,0.0,0.0,0.0,0.0,0.0,0.0,0.0,0.0,0.0,0.0,0.0,0.0,0.0,0.0,0.0,0.0,0.0,0.0,0.0,0.0,0.0,0.0,0.0,0.0,-0.048483048,0.06017738,-0.025504082,0.019296004,0.023502957,0.008093542,-0.0512843,-0.012138932,0.035580724,0.036303718,-0.019569786,0.0031575554,0.024023626,0.016201498,-0.03553182,-0.0069149747,-0.022112414,0.003838484,-0.041842926,-0.02247585,-0.021183481,0.050583497,0.033982612,-0.020743832,-0.025896605,0.06693525,0.0009652026,-0.07567077,-0.022389753,0.042364396,0.04431342,0.011349138,-0.0007026326,0.006499931,0.030521253,0.022579439,0.043166764,-0.003939881,-0.01763296,0.0055382703,-0.0056863152,0.033259097,-0.013262532,0.043750454,0.004993659,0.00066764274,-0.036836784,-0.0029924223,0.0061944197,0.015595054,0.03950848,0.018107723,0.008437302,0.0089826,-0.0015175903,0.018815612,-0.08096978,0.00081891497,-0.0061568776,0.011439294,0.03743449,0.046896998,0.0058768974,0.032922074,-0.00981567,0.0010632377,0.018103998,0.01645108,0.058629274,-0.0030200602,0.0019976662,-0.009943271,-0.052071642,0.017251931,0.049898367,-0.002760393,0.026425622,0.020355605,0.061592184,0.02226665,-0.027375605,-0.008814375,-0.010497096,-0.03054546,-0.072635524,0.015660618,0.0109355,-0.035327826,-0.0015401155,0.037776183,0.015187449,0.02469157,0.0016999588,-0.0058476306,0.044241253,-0.09581812,-0.023612592,-0.00006433959,0.003009623,-0.03222635,-0.014052727,0.0493491,0.0379698,-0.036672305,0.021684531,0.058169972,0.02217195,0.031415883,-0.035655204,-0.025144022,0.003764956,0.010836966,-0.010556565,-0.017524768,-0.044663616,0.062216345,0.02671853,-0.037824903,0.043103505,-0.012835499,0.043792907,0.019676039,-0.050273344,0.013162724,0.0014784507,0.017003745,-0.048300795,-0.02913185,0.027527647,0.025942877,-0.012689643,-0.036587086,0.020314284,0.039003678,-0.005830958,0.028794888,0.03629621,-0.010839361,-0.008319703,-0.009185328,0.042537916,-0.005268778,-0.03418809,0.02350615,-0.04543409,-0.011681704,0.011640374,0.010662599,0.003419514,-0.009000466,-0.00541399,-0.009757444,-0.0070512197,0.028900856,0.033500176,0.057034876,-0.022157542,0.0046445793,0.0066792592,-0.029022647,-0.053586006,-0.020384606,0.034208406,0.017836131,-0.035695173,0.031095216,0.012578058,0.03684886,-0.009124053,-0.011618946,0.008272705,0.04404784,0.0589625,0.05945888,-0.0041638864,0.0014559596,0.04918734,0.014936683,0.0030850153,0.02454454,-0.016198998,-0.008137776,0.06596951,-0.021145757,0.028919829,0.03611409,-0.037285212,0.0073182876,0.0036005422,0.03578783,0.004460028,-0.003949252,0.0025279678,0.03828563,0.0009747654,0.014941985,-0.0055695535,0.07093008,-0.00238796,-0.020420916,-0.03567338,0.017997356,-0.0014983313,-0.0152919525,-0.009893503,0.013689621,-0.024573717,0.047100596,0.0074301814,-0.005101415,0.022141043,0.0013706873,-0.036949936,-0.051245846,0.07062268,0.04221284,0.042469982,0.0011615286,-0.0025468883,-0.027726281,0.0069488916,-0.036810096,0.053815577,0.015081423,0.025646,-0.028046792,-0.03305988,0.0075513152,0.0180382,0.01648805,0.015680987,0.03458661,-0.01409738,-0.027333932,-0.010142871,-0.026339106,0.002166541,0.015486642,0.03553541,0.013263712,0.012619895,0.026227297,-0.019504145,-0.0059097065,0.007848341,0.036676537,0.03154742,0.008334544,0.036877356,-0.043800227,0.01220361,-0.053930804,0.0018633439,-0.025618536,0.008999634,-0.00021801618,-0.0857112,-0.026356412,-0.02399121,-0.062163003,-0.140946,0.06259538,0.13201632,0.0039051736,0.01481854,0.04474644,0.045263454,0.017767454,0.060344473,-0.041696966,-0.021850497,0.008520479,0.022100465,0.060338624,0.07213072,0.02693636,-0.06114586,0.046536617,-0.01314877,0.005313274,-0.029785123,-0.048756626,0.058035318,0.057878543,0.09857771,0.014295772,-0.03688921,-0.04558997,-0.067371935,0.050894685,-0.08402654,-0.08540486,0.0840671,0.08538253,-0.012556233,-0.10583283,0.056316096,0.04305703,0.0447592,0.008648444,0.027126553,-0.11378241,0.055715237,0.058828358,0.018673329,0.0062286025,0.009858194,0.043468148,0.019047938,0.025182268,-0.049214676,-0.103400186,0.064613864,-0.099116094,0.031578064,0.01440913,-0.006273365,0.11898415,0.057893183,-0.055262823,-0.0404306,-0.094800904,-0.0020030239,-0.06889838,-0.06778144,-0.0020503392,0.07248155,0.14936434,-0.017089345,-0.07910191,0.032080445,-0.00062133395,-0.012418231,-0.04229885,-0.016476544,-0.06669353,0.06423128,-0.06500344,0.053662,-0.05667852,-0.06232767,-0.04843307,-0.056550033,-0.09824853,-0.072139576,0.07986135,0.0019807518,0.026208544,-0.08549059,0.11139223,-0.10261469,0.0088466,0.020715538,0.09486321,0.025491104,0.09360133,-0.008833669,0.060877543,0.012843988,-0.007777011,-0.08620955,-0.041555353,-0.06444771,0.021021858,0.07814047,0.04260038,-0.026619274,-0.0073852376,0.034468036,-0.011769885,0.16377275,-0.04459412,0.07035079,0.018186724,-0.08457032,-0.016854512,-0.035683703,-0.00982796,-0.012294414,-0.13952668,-0.12105939,0.022315195,-0.02106613,-0.030082585,-0.085111745,0.01738907,0.08397777,0.043365963,0.024362471,-0.020752141,-0.11245961,0.09153216,-0.04812621,0.012750524,0.1560976,0.025552288,0.100773856,-0.074570864,-0.012036264,-0.039314948,-0.0174573,0.025331382,-0.034549307,-0.090365134,0.10954949,-0.060508285,0.0019509632,-0.03225088,-0.0027870645,-0.026452612,-0.028587729,0.06461571,0.10142516,0.038550813,-0.013856182,0.013973278,-0.0071783676,0.025849178,-0.08365962,0.035674844,0.030970084,-0.09411363,0.01763347,0.006972263,-0.06837856,0.0066227447,0.06689146,-0.028128726,0.049083818,-0.0734794,-0.0437292,0.12554033,-0.06762349,0.040464252,-0.065268785,0.011853186,0.10768666,-0.016956346,0.016905919,-0.012013384,-0.06221022,-0.11521456,-0.028238552,-0.017064659,0.09438192,-0.032687545,0.013289995,0.0259325,-0.07835071,-0.042212326,-0.0016088677,0.003257224,-0.0062661436,0.01520714,0.018643431,0.12473665,0.027987033,-0.088183686,-0.1307213,0.07297646,-0.0067472924,-0.106025554,-0.029295582,0.013255261,-0.041654468,0.00006332255,-0.0524131,-0.03384597,-0.05276858,-0.021178743,-0.035184722,0.023106772,0.08425814,-0.0006609791,0.092795335,0.02518535,0.14165421,-0.018363046,0.03353237,0.026715083,-0.016456528,-0.020991242,0.05638017,0.052438777,-0.0077657257,-0.036337104,0.06452642,0.010731954,0.02943831,-0.06650019,0.043384437,-0.019635236,-0.030186938,-0.13477848,-0.10933442,0.06513621,0.039093334,0.05342063,-0.030892026,0.0024141644,0.03880478,-0.07110017,-0.059706442,0.101887435,-0.03282632,0.03851418,-0.026124442,-0.0047024004,-0.03970575,0.009696882,-0.02623067,-0.057814546,0.007287953,-0.01843906,-0.003531881,0.025553785,-0.026380055,-0.028948866,0.0046560625,-0.0070597474,-0.016822953,0.015632832,-0.012049724,-0.00029937123,0.021365074,0.018462855,0.010533907,-0.0037687768,0.033353563,0.0037896233,0.024293782,0.025399903,-0.027979191,0.006692897,0.021039868,0.006179109,0.00040346605,0.009636961,0.046415884,0.000096503645,0.002952947,-0.014171265,0.027469505,0.0037594126,-0.029301368,-0.016555952,-0.0087538855,-0.022956284,0.0003386477,0.0014601921,-0.03963962,-0.00039286536,0.017449595,-0.01946701,-0.021179682,0.008573556,-0.033832595,0.0093822265,0.015007725,0.018926328,-0.02747509,0.0037832642,0.008984163,0.026794681,-0.011905998,0.013713892,0.037036054,-0.019295862,0.013202854,0.0029961565,-0.008270129,-0.029670581,-0.010772811,-0.02343028,0.010665319,-0.013890514,0.0069963303,-0.03649368,-0.011153411,-0.0022743978,-0.0064282897,-0.012884575,-0.014551148,-0.003933442,-0.040655933,-0.041531313,-0.0076423083,0.005823482,-0.012893152,-0.032096166,0.0026503634,0.004035206,-0.020568104,0.0028804364,0.0012932372,0.018799527,0.0030497585,-0.031666223,-0.0147993835,0.020225616,-0.025276355,-0.005264369,-0.0094994735,0.022891952,-0.0032931964,-0.043577593,0.012313161,-0.035003524,-0.01066848,0.011617029,-0.0058016623,0.042126074,-0.043780286,0.0055923043,-0.012004372,-0.07041514,0.009970828,-0.02968551,-0.015074178,0.019400867,0.025613882,0.022718977,-0.000019237797,0.034821726,-0.022152992,0.006670141,0.02085562,0.012190466,-0.014517176,0.015987555,0.022075305,-0.033113755,0.02025803,0.010797477,0.031793624,-0.027131628,0.020445373,0.0077579734,0.01564147,0.019318646,0.023718674,-0.0039006697,-0.008318368,0.003530627,-0.0094066,0.0068225074,-0.010488206,-0.0042918236,-0.0214543,0.023796825,-0.0033174683,-0.011698886,0.013433098,-0.01947243,0.000621806,-0.0032809097,0.0032846031,-0.012748458,-0.021065228,-0.0049841325,0.022431258,0.021891542,0.030141307,0.023179788,-0.0075459573,0.011069192,-0.027042355,0.043500535,-0.00505094,0.000520087,-0.0056249215,0.0323939,-0.0149543,-0.025210137,-0.010013294,-0.009169557,-0.007193026,-0.0025118971,-0.032059006,-0.00002936074,0.037506375,-0.0077195545,0.03281707,-0.03710114,0.012118603,-0.059467684,-0.007956371,0.0047284183,0.009197838,-0.007029213,-0.04213491,-0.017759435,-0.013448842,0.032617003,0.013945369,0.004637234,0.017011067,0.0055890013,-0.000017258722,0.017139226,-0.016580915,-0.008579738,-0.01764706,0.03699907,-0.008396123,-0.001205043,-0.04170483,-0.011755487,0.013157594,0.032789014,-0.0012218021,-0.01874892,0.0005406135,0.019709416,0.022430914,0.007917583,0.0017027304,-0.005429463,-0.02028575,-0.004567366,0.0053101564,0.019605128,-0.01753905,-0.013831894,0.013708845,-0.010603794,-0.02604813,-0.002306852,0.010966308,0.0075621675,-0.0053063654,-0.001080982,0.008516247,-0.016615868,-0.009461675,0.022936689,0.040388756,-0.0130932685,-0.018626535,-0.0036332298,0.017233433,0.008168184,-0.029895628,0.014049801,-0.03195967,-0.02140846,0.010098471,-0.007325136,-0.036812857,0.006112024,-0.028520275,-0.017506424,-0.008218097,-0.025109528,-0.007825963,-0.04490503,0.00830562,0.007032221,-0.00303553,-0.009774702,-0.02348236,0.04238377,-0.018710287,-0.027517572,0.0014791345,-0.027988719,0.007760575,-0.010261193,-0.055947986,0.01840435,-0.0042140977,-0.0083285235,-0.08092248,0.04533253,0.064728156,0.013667781,-0.0070829256,0.02932122,0.035898063,0.04638806,0.020586204,-0.03706979,-0.008363173,-0.019350275,0.015933707,0.05008819,0.039340463,0.041270725,-0.03216613,0.052492846,0.03384063,0.018377915,-0.030314697,-0.036205854,0.019630635,0.08079904,0.057588756,-0.002536535,-0.024130702,-0.042641874,-0.08231877,0.015374816,-0.043854836,-0.056696482,0.050513428,0.0042194896,-0.0074050855,-0.022051917,0.029361488,0.04257957,0.03290318,0.02386695,-0.067715146,-0.07001842,0.018870441,0.043484937,-0.036458455,-0.04250197,0.02273398,0.016188046,0.028191656,0.04655339,-0.005089978,-0.043620493,0.016525405,-0.07234018,0.00067387836,0.029995695,-0.060364097,0.045028716,0.032067277,-0.042198036,-0.05598247,-0.07832912,0.00060833176,-0.05561288,-0.06599682,0.004985216,0.038518827,0.049834944,-0.031031677,-0.06763998,0.040849715,-0.011014649,-0.015612368,-0.05571451,0.021603767,-0.06449855,0.00068744423,-0.010409598,0.07231584,-0.052379634,-0.02175555,-0.060785666,-0.03795351,-0.057731837,-0.061269086,0.056974724,-0.010222592,0.0021194026,-0.018808708,0.03677861,-0.06805348,-0.038816668,-0.002488734,0.027044967,0.028596308,0.10203059,-0.06370191,0.0039881025,0.02630082,-0.03273552,-0.060257427,-0.025408054,-0.024234021,0.031785652,0.030545546,0.080553494,-0.04855527,-0.023818115,0.082703605,0.010298293,0.092942536,-0.051834002,-0.0031321277,0.025838895,-0.0044112387,-0.012008623,-0.011770793,0.033821695,0.028207993,-0.0789007,-0.04608262,0.0056794644,0.0117642665,0.030245366,-0.06535574,-0.0008940526,0.053835426,-0.0013015264,0.03355841,0.0059715393,-0.05438118,0.056130774,-0.03273439,0.001337194,0.057551637,-0.0057556024,0.029821279,-0.045261808,0.0018359537,-0.052743025,0.0054857167,0.0028754508,-0.037229165,-0.046725042,0.064225376,-0.0038270939,0.0068130502,0.011511854,0.024493923,0.016072212,-0.0558168,0.060798712,-0.013151926,-0.022718094,0.014528114,0.023630185,0.023500184,0.0003823494,-0.04315715,0.030035928,0.02651044,-0.04291262,0.012634054,-0.00090808276,0.009098175,-0.041286632,0.059625685,-0.02956146,0.010149411,-0.08301626,-0.024505561,0.10704513,-0.014260315,0.022457933,-0.09493829,-0.005444385,0.03649229,0.023414744,0.0120134745,0.02723861,-0.032940317,-0.038397297,-0.03151582,-0.021799697,0.023341237,0.04163287,-0.030789848,0.047232617,-0.03588492,-0.06315952,-0.0044721826,0.01771939,0.0010344207,0.06305212,0.03505614,0.07382744,0.02020509,-0.000228134,-0.055083666,0.042395327,-0.0228684,-0.036591254,0.008421267,-0.008214615,-0.04507724,0.033350255,-0.0057992092,0.0013260758,-0.04842324,-0.01692182,0.0064418884,-0.011599286,0.106762305,-0.07794216,0.04579769,0.03219997,0.065098636,-0.010476786,-0.014771541,0.04468142,-0.00845326,-0.0107735805,0.027465483,-0.010652715,0.0057555395,0.0035729082,0.014230047,0.032528527,-0.0046322215,-0.05826873,0.021286648,-0.060686853,0.037934188,-0.100506485,-0.04437854,0.028797735,0.014959737,-0.02919696,-0.053510755,-0.05453126,0.061952114,-0.020501008,-0.052333403,0.04517776,0.01580424,0.030997492,-0.048270736,-0.06848243,-0.0548406,0.004252176,-0.025732405,-0.059078276,0.026213456,-0.0656109,0.009328709,0.039301928,-0.043060243,0.0049366024,0.026912028,-0.011732082,-0.04346939,0.009538076,0.05169586,0.036126144,-0.03625767,-0.0053501944,-0.021459185,0.059633005,-0.0068683694,0.0134403985,0.022649085,-0.0126236435,0.05619295,-0.016821323,0.04242819,0.023867344,-0.022187402,-0.088063866,-0.002127271,0.06089375,0.015760737,0.0355491,-0.003126352,-0.004131428,-0.0027498037,-0.027429277,-0.03450342,-0.015547312,-0.0045658103,0.022523666,-0.018846324,-0.011437,0.006275858,-0.034637958,0.004332109,0.01487239,0.00479645,-0.016305666,0.012529286,0.019085106,-0.00479266,-0.01402329,-0.012953498,0.049582656,-0.00634456,0.024926404,-0.0037554754,-0.018911485,-0.020746663,0.008416675,0.016073484,0.036796212,-0.020846887,-0.0088096475,-0.022700986,-0.040033855,0.022966243,-0.022640644,-0.009403383,-0.03842872,-0.0823913,0.032238364,-0.0023760844,0.018245008,-0.013547712,-0.03939233,-0.0032014195,-0.027222991,0.0061411676,-0.03570925,-0.01821643,-0.045793913,0.008800313,0.011090292,0.046604216,-0.032728955,0.0022857238,-0.017581312,-0.041652262,-0.029071277,-0.030338414,0.025779331,0.014034924,0.00031348405,-0.011763333,0.028147802,-0.09401767,0.025820993,-0.0066725756,0.026793316,0.034456037,0.032655843,0.016470332,-0.027519664,-0.0053467266,0.011284464,-0.01641642,-0.01555561,-0.038419098,-0.013741729,0.0030779757,0.04394191,0.018466482,-0.033343732,0.01906599,-0.0028547598,0.08345699,-0.023718802,-0.01725564,-0.023339916,-0.050307136,0.0020314269,-0.056691196,0.07345154,0.013916705,-0.039164856,-0.018075367,-0.0017303439,0.04145359,0.046573848,-0.007558316,0.0058988906,0.032936893,0.009769032,0.001233656,0.0216142,-0.006358396,0.034471195,-0.024194555,-0.033120044,0.035843432,0.01863321,0.023444334,0.001145869,-0.0018323266,-0.029981777,0.0034438886,0.09277183,0.009122062,-0.030882979,0.0054402202,0.000054906675,-0.026053969,0.040820707,0.08038771,-0.0017797047,-0.06547624,0.028362086,0.03466062,-0.014973499,0.023817437,0.02085803,0.0027401971,0.0055636223,-0.029008497,-0.01676165,0.010682645,-0.01920251,-0.017324604,0.032633066,0.029925115,-0.041777927,0.02394939,-0.0030195115,-0.026376488,-0.055451974,0.0017974861,0.036769792,-0.04203611,0.024946662,-0.041276954,-0.022840522,0.025974516,0.028453374,-0.049572926,0.02536626,-0.025566038,-0.023415944,-0.012606489,0.002114758,0.0070706964,-0.037573576,0.003508665,0.016914152,-0.03877062,-0.016690038,-0.028469052,-0.007412111,0.004679698,0.028471436,-0.010719492,0.055300858,0.0057474016,0.006166669,0.026286755,0.013796752,0.0019366486,0.008841719,-0.012556825,-0.07807676,-0.022107005,0.026308915,-0.00096502696,0.0069439784,0.02460693,0.004612525,-0.025335848,0.000079213525,0.015704958,-0.030454317,-0.0043109735,-0.00012226356,0.054627262,0.018245526,-0.0049290047,-0.00021799581,-0.01432669,-0.010069824,0.0044422434,0.017434884,-0.014911267,0.006801679,-0.049058404,0.025229499,-0.022927182,-0.001825777,0.010211887,-0.08631189,0.018522974,-0.03036786,-0.03606515,-0.0065675066,0.039403807,-0.01858516,-0.004678834,0.00932299,0.006220642,-0.0080149155,-0.026529465,0.00719002,-0.0228356,0.019018961,-0.012598039,-0.028851692,0.027397182,0.029240925,0.00013889869,-0.048447415,0.0,0.0,0.0,0.0,0.0,0.0,0.0,0.0,0.0,0.0,0.0,0.0,0.0,0.0,0.0,0.0,0.0,0.0,0.0,0.0,0.0,0.0,0.0,0.0,0.0,0.0,0.0,0.0,0.0,0.0,0.0,0.0,0.0,0.0,0.0,0.0,0.0,0.0,0.0,0.0,0.0,0.0,0.0,0.0,0.0,0.0,0.0,0.0,0.0,0.0,0.0,0.0,0.0,0.0,0.0,0.0,0.0,0.0,0.0,0.0,0.0,0.0,0.0,0.0,0.0,0.0,0.0,0.0,0.0,0.0,0.0,0.0,0.0,0.0,0.0,0.0,0.0,0.0,0.0,0.0,0.0,0.0,0.0,0.0,0.0,0.0,0.0,0.0,0.0,0.0,0.0,0.0,0.0,0.0,0.0,0.0,0.0,0.0,0.0,0.0,0.0,0.0,0.0,0.0,0.0,0.0,0.0,0.0,0.0,0.0,0.0,0.0,0.0,0.0,0.0,0.0,0.0,0.0,0.0,0.0,0.0,0.0,0.0,0.0,0.0,0.0,0.0,0.0,0.0,0.0,0.0,0.0,0.0,0.0,0.0,0.0,0.0,0.0,0.0,0.0,0.0,0.0,0.0,0.0,0.0,0.0,0.0,0.0,0.0,0.0,0.0,0.0,0.0,0.0,0.0,0.0,0.0,0.0,0.0,0.0,0.0,0.0,0.0,0.0,0.0,0.0,0.0,0.0,0.0,0.0,0.0,0.0,0.0,0.0,0.0,0.0,0.0,0.0,0.0,0.0,0.0,0.0,0.0,0.0,0.0,0.0,0.0,0.0,0.0,0.0,0.0,0.0,0.0,0.0,0.0,0.0,0.0,0.0,0.0,0.0,0.0,0.0,0.0,0.0,0.0,0.0,0.0,0.0,0.0,0.0,0.0,0.0,0.0,0.0,0.0,0.0,0.0,0.0,0.0,0.0,0.0,0.0,0.0,0.0,0.0,0.0,0.0,0.0,0.0,0.0,0.0,0.0,0.0,0.0,0.0,0.0,0.0,0.0,0.0,0.0,0.0,0.0,0.0,0.0,0.0,0.0,0.0,0.0,0.0,0.0,0.0,0.0,0.0,0.0,0.0,0.0,0.12883869,-0.07326702,-0.027441317,-0.052282248,0.10959598,0.0016312081,-0.072836004,0.055174958,0.020611415,-0.061019428,-0.11863664,-0.025679527,-0.00906785,-0.02360861,0.047582746,0.05123452,-0.019293869,-0.10443017,-0.07294729,-0.01927512,0.12057459,-0.12686318,-0.037604243,0.037641495,0.094669454,0.07682515,-0.045297354,-0.084489,-0.054322854,-0.03822631,0.00042082698,0.014532684,0.11056861,-0.06919982,0.067314595,0.0787936,-0.13154912,-0.11035363,0.094488144,0.07047537,0.04431673,0.035336543,-0.028616603,0.023822121,0.0069703795,0.13388953,0.019623604,-0.07641762,0.0018039374,-0.0007961263,-0.013467653,-0.06708481,-0.15052819,-0.0008153115,-0.030764624,0.106571,0.054734115,0.08681914,-0.07799233,0.01654193,-0.074246235,-0.08041914,-0.06186672,0.09044615,0.084550545,0.12188539,0.025874814,0.14402016,0.036659796,0.05801087,-0.10362113,-0.0655253,0.082326554,0.12245498,0.014335975,0.066494726,0.024131851,-0.04098224,-0.007085421,0.020697229,-0.0076991925,0.042713664,-0.034940645,0.12945993,0.047338516,0.021737233,0.09019446,0.08600566,0.08808193,-0.11406209,-0.0060898727,-0.040150028,0.097883336,-0.0575721,0.099094294,0.003703858,0.015491913,-0.112152,0.035929155,-0.06383035,-0.020437917,-0.056588948,-0.052787345,0.08158383,0.013416663,0.0267202,0.030411288,-0.011192872,-0.042425957,-0.055963147,-0.050295986,-0.101959065,0.02097451,0.10959645,-0.087941304,-0.0027836158,-0.029872745,0.021599354,0.04228854,0.016016342,-0.014990101,0.015740361,0.018500261,0.12142341,0.06571455,-0.009664472,0.08523112,0.037400186,0.04069847,-0.039982352,-0.083491914,0.015332295,0.014530221,0.032612953,0.054236583,-0.07214881,0.067883536,0.048778694,-0.12807733,-0.040712565,-0.12390613,0.04627328,0.10173247,-0.062220745,-0.020048315,-0.03148865,0.012821311,0.017166687,-0.0051684976,0.079666406,0.0732819,0.033143364,-0.0059278645,-0.019034117,0.10195903,-0.12093547,-0.08612824,0.07421928,0.033351924,0.057078104,0.055906307,-0.011296677,0.057366528,0.0010655129,-0.04292619,0.065160125,0.020722987,-0.13315597,-0.008452995,-0.022210145,-0.09021601,-0.039769463,-0.04185975,0.050185036,0.06382221,-0.12020383,0.048554234,-0.11837115,0.12694961,-0.102058604,-0.081060365,-0.03878665,-0.048199136,0.029718451,0.110078566,0.054322973,0.030671364,0.042809132,-0.12288957,0.025328785,0.03602987,-0.03214282,0.088145465,0.025150016,0.087196924,-0.009265639,-0.042283405,-0.005603185,0.01783838,-0.15021683,-0.091975935,0.0010947535,0.061684195,-0.09015405,0.090334274,0.06338598,0.09449136,-0.016882367,0.1169894,0.035943538,0.022593755,-0.09378914,0.048879202,0.063803695,0.05522589,-0.063734114,-0.121915415,0.007585909,-0.04584529,-0.010374888,-0.074529566,0.07347848,-0.054502565,-0.046074852,0.042860303,0.03084778,-0.04155153,-0.088572994,-0.0140092475,-0.033339217,-0.0493682,-0.005505326,-0.02961098,0.09950837,-0.02047839,0.060628798,-0.06905453,0.12093317,0.03759487,-0.009594323,-0.08470135,0.0029088843,0.04306052,0.015704658,-0.036095213,0.008694404,0.022712208,-0.103763945,0.09134405,-0.019176735,0.014567174,0.068192795,0.05081076,0.068543814,0.017316958,0.072883025,0.023773061,-0.01599979,0.007701495,0.0066842614,0.016485026,-0.0137330815,-0.044618662,-0.0062497873,0.005336063,-0.009084773,-0.038999192,-0.0064378227,0.011437491,0.0015694143,-0.0040374296,0.0075893155,0.0072509833,-0.023738766,-0.023935905,-0.014588979,-0.010682417,0.007885199,0.010935607,0.0016689576,0.0113440445,0.01289209,-0.024231987,-0.046699166,-0.013043608,-0.010937566,0.032375664,0.01971372,0.007025689,-0.008845746,0.032217257,0.022802005,0.0067375996,-0.027503625,-0.008234187,0.04151133,0.022798065,-0.0037387616,-0.01564803,0.011320367,-0.0045704357,0.028025087,0.0180461,0.0025382412,-0.010702368,0.020203149,0.031176304,0.026720397,-0.03802267,-0.006749701,0.037094682,0.017291632,-0.01560464,0.0387577,-0.037708104,0.02882442,-0.014068154,-0.008606978,-0.01779584,0.03552544,0.010073941,0.01515501,0.010572483,0.019138247,0.02566026,0.023696562,-0.026053077,-0.018540531,-0.03789307,-0.00739735,0.018291429,-0.013733372,-0.0078396825,-0.01217024,0.023067385,0.019071978,-0.034108717,0.030965423,-0.008649818,0.017022967,-0.025827471,0.007187673,0.020842701,-0.00953752,0.0011794764,-0.004932082,-0.009585739,0.011401192,0.027676433,-0.053781893,0.05477527,-0.051429123,-0.010749973,-0.012157024,0.006328947,0.0027912883,-0.031409867,-0.016964484,0.002347327,-0.033034284,0.043526977,0.007698727,0.024450121,0.021071518,-0.0078057195,-0.0013688395,-0.00868775,0.0026859622,-0.0077788928,0.006999842,-0.03407689,0.033901375,-0.011234811,-0.029135313,0.048373826,-0.03360083,0.008742391,0.02414087,0.00074345816,0.022760829,0.048185956,-0.01771859,-0.0044967677,-0.0066001825,0.038723685,0.027230108,-0.041245572,-0.016916059,-0.0054774615,0.025205346,0.01040422,-0.023010565,0.02138303,0.019512849,-0.029212102,-0.033778973,0.008563558,0.001466338,-0.0074457824,0.0011938732,-0.0051506967,-0.026351726,0.007345218,0.0036661122,0.0016168912,0.015801368,0.0108789895,0.03584686,-0.010398575,0.022060364,0.0390624,-0.002397445,-0.035367653,0.03113971,0.043151565,0.028025817,-0.013002315,-0.017602606,0.025036458,-0.02932669,-0.013657782,0.017081914,-0.0215418,0.00070267805,0.020191623,-0.03951743,-0.03340878,-0.00051663513,0.009267222,0.040701933,-0.013859156,-0.01888307,0.0451036,-0.003865621,-0.007629146,-0.0059238835,-0.035309684,-0.017245792,0.018891184,0.00016188076,0.04578603,0.013139664,-0.00064557296,0.005484432,-0.036089037,-0.010667671,0.006956663,0.030112216,0.0057238233,0.02831161,-0.010564169,0.0022021825,0.0016733092,0.058159485,0.013976878,-0.036785893,-0.042178374,0.0018673809,0.015028535,-0.0136426035,0.009984554,0.03445276,0.017831426,0.009603137,0.025092231,0.011049405,0.0065909065,-0.0024255607,-0.013957757,-0.0076047126,0.040330827,0.0052818116,0.0046725576,0.0029852479,-0.00038397496,-0.017563488,-0.009650826,0.0076335687,-0.0021709446,0.0052723545,0.044557735,0.006179811,-0.04685501,-0.013388173,-0.000386781,-0.0026193801,-0.025585648,0.011765065,-0.034608077,0.0114736175,0.0018639133,-0.036568277,-0.028492266,0.033488374,0.007025332,-0.012908001,-0.013019761,-0.0016334648,0.010184191,-0.0057271523,-0.013574618,0.016564878,0.019590477,-0.025750715,0.0155512355,0.0046813115,-0.010455456,-0.024628438,0.03238524,-0.0035787208,0.0049269805,0.0109935505,0.0,0.0,0.0,0.0,0.0,0.0,0.0,0.0,0.0,0.0,0.0,0.0,0.0,0.0,0.0,0.0,0.0,0.0,0.0,0.0,0.0,0.0,0.0,0.0,0.0,0.0,0.0,0.0,0.0,0.0,0.0,0.0,0.0,0.0,0.0,0.0,0.0,0.0,0.0,0.0,0.0,0.0,0.0,0.0,0.0,0.0,0.0,0.0,0.0,0.0,0.0,0.0,0.0,0.0,0.0,0.0,0.0,0.0,0.0,0.0,0.0,0.0,0.0,0.0,0.0,0.0,0.0,0.0,0.0,0.0,0.0,0.0,0.0,0.0,0.0,0.0,0.0,0.0,0.0,0.0,0.0,0.0,0.0,0.0,0.0,0.0,0.0,0.0,0.0,0.0,0.0,0.0,0.0,0.0,0.0,0.0,0.0,0.0,0.0,0.0,0.0,0.0,0.0,0.0,0.0,0.0,0.0,0.0,0.0,0.0,0.0,0.0,0.0,0.0,0.0,0.0,0.0,0.0,0.0,0.0,0.0,0.0,0.0,0.0,0.0,0.0,0.0,0.0,0.0,0.0,0.0,0.0,0.0,0.0,0.0,0.0,0.0,0.0,0.0,0.0,0.0,0.0,0.0,0.0,0.0,0.0,0.0,0.0,0.0,0.0,0.0,0.0,0.0,0.0,0.0,0.0,0.0,0.0,0.0,0.0,0.0,0.0,0.0,0.0,0.0,0.0,0.0,0.0,0.0,0.0,0.0,0.0,0.0,0.0,0.0,0.0,0.0,0.0,0.0,0.0,0.0,0.0,0.0,0.0,0.0,0.0,0.0,0.0,0.0,0.0,0.0,0.0,0.0,0.0,0.0,0.0,0.0,0.0,0.0,0.0,0.0,0.0,0.0,0.0,0.0,0.0,0.0,0.0,0.0,0.0,0.0,0.0,0.0,0.0,0.0,0.0,0.0,0.0,0.0,0.0,0.0,0.0,0.0,0.0,0.0,0.0,0.0,0.0,0.0,0.0,0.0,0.0,0.0,0.0,0.0,0.0,0.0,0.0,0.0,0.0,0.0,0.0,0.0,0.0,0.0,0.0,0.0,0.0,0.0,0.0,0.0,0.0,0.0,0.0,0.0,0.0,0.0,0.0,0.0,0.0,0.0,0.0,0.0,0.0,0.0,0.0,0.0,0.0,0.0,0.0,0.0,0.0,0.0,0.0,0.0,0.0,0.0,0.0,0.0,0.0,0.0,0.0,0.0,0.0,0.0,0.0,0.0,0.0,0.0,0.0,0.0,0.0,0.0,0.0,0.0,0.0,0.0,0.0,0.0,0.0,0.0,0.0,0.0,0.0,0.0,0.0,0.0,0.0,0.0,0.0,0.0,0.0,0.0,0.0,0.0,0.0,0.0,0.0,0.0,0.0,0.0,0.0,0.0,0.0,0.0,0.0,0.0,0.0,0.0,0.0,0.0,0.0,0.0,0.0,0.0,0.0,0.0,0.0,0.0,0.0,0.0,0.0,0.0,0.0,0.0,0.0,0.0,0.0,0.0,0.0,0.0,0.0,0.0,0.0,0.0,0.0,0.0,0.0,0.0,0.0,0.0,0.0,0.0,0.0,0.0,0.0,0.0,0.0,0.0,0.0,0.0,0.0,0.0,0.0,0.0,0.0,0.0,0.0,0.0,0.0,0.0,0.0,0.0,0.0,0.0,0.0,0.0,0.0,0.0,0.0,0.0,0.0,0.0,0.0,0.0,0.0,0.0,0.0,0.0,0.0,0.0,0.0,0.0,0.0,0.0,0.0,0.0,0.0,0.0,0.0,0.0,0.0,0.0,0.0,0.0,0.0,0.0,0.0,0.0,0.0,0.0,0.0,0.0,0.0,0.0,0.0,0.0,0.0,0.0,0.0,0.0,0.0,0.0,0.0,0.0,0.0,0.0,0.0,0.0,0.0,0.0,0.0,0.0,0.0,0.0,0.0,0.0,0.0,0.0,0.0,0.0,0.0,0.0,0.0,0.0,0.0,0.0,0.0,0.0,0.0,0.0,0.0,0.0,0.0,0.0,0.0,0.0,0.0,0.0,0.0,0.0,0.0,0.0,0.0,0.0,0.0,0.0,0.0,0.0,0.0,0.0,0.0,0.0,0.0,0.0,0.0,0.0,0.0,0.0,0.0,0.0,0.0,0.0,0.0,0.0,0.0,0.0,0.0,0.0,0.0,0.0,0.0,0.0,0.0,0.0,0.0,0.0,0.0,0.0,0.0,0.0,0.0,0.0,0.0,0.0,0.0,0.0,0.0,0.0,0.0,0.0,0.0,0.0,0.0,0.0,0.0,0.0,0.0,0.0,0.0,0.0,0.0,0.0,0.0,0.0,0.0,0.0,0.0,0.0,0.0,0.0,0.0,0.0,0.0,0.0,0.0,0.0,0.0,0.0,0.0,0.0,0.0,0.0,0.0,0.0,0.0,0.0,0.0,0.0,0.0,0.0,0.0,0.0,0.0,0.0,0.0,0.0,0.0,0.0,0.0,0.0,0.0,0.0,0.0,0.0,0.0,0.0,0.0,0.0,0.0,0.0,0.0,0.0,0.0,0.0,0.0,0.0,0.0,0.0,0.0,0.0,0.0,0.0,0.0,0.0,0.0,0.0,0.0,0.0,0.0,0.0,0.0,0.0,0.0,0.0,0.0,0.0,0.0,0.0,0.0,0.0,0.0,0.0,0.0,0.0,0.0,0.0,0.0,0.0,0.0,0.0,0.0,0.0,0.0,0.0,0.0,0.0,0.0,0.0,0.0,0.0,0.0,0.0,0.0,0.0,0.0,0.0,0.0,0.0,0.0,0.0,0.0,0.0,0.0,0.0,0.0,0.0,0.0,0.0,0.0,0.0,0.0,0.0,0.0,0.0,0.0,0.0,0.0,0.0,0.0,0.0,0.0,0.0,0.0,0.0,0.0,0.0,0.0,0.0,0.0,0.0,0.0,0.0,0.0,0.0,0.0,0.0,0.0,0.0,0.0,0.0,0.0,0.0,0.0,0.0,0.0,0.0,0.0,0.0,0.0,0.0,0.0,0.0,0.0,0.0,0.0,0.0,0.0,0.0,0.0,0.0,0.0,0.0,0.0,0.0,0.0,0.0,0.0,0.0,0.0,0.0,0.0,0.0,0.0,0.0,0.0,0.0,0.0,0.0,0.0,0.0,0.0,0.0,0.0,0.0,0.0,0.0,0.0,0.0,0.0,0.0,0.0,0.0,0.0,0.0,0.0,0.0,0.0,0.0,0.0,0.0,0.0,0.0,0.0,0.0,0.0,0.0,0.0,0.0,0.0,0.0,0.0,0.0,0.0,0.0,0.0,0.0,0.0,0.0,0.0,0.0,0.0,0.0,0.0,0.0,0.0,0.0,0.0,0.0,0.0,0.0,0.0,0.0,0.0,0.0,0.0,0.0,0.0,0.0,0.0,0.0,0.0,0.0,0.0,0.0,0.0,0.0,0.0,0.0,0.0,0.0,0.0,0.0,0.0,0.0,0.0,0.0,0.0,0.0,0.0,0.0,0.0,0.0,0.0,0.0,0.0,0.0,0.0,0.0,0.0,0.0,0.0,0.0,0.0,0.0,0.0,0.0,0.0,0.0,0.0,0.0,0.0,0.0,0.0,0.0,0.0,0.0,0.0,0.0,0.0,0.0,0.0,0.0,0.0,0.0,0.0,0.0,0.0,0.0,0.0,0.0,0.0,0.0,0.0,0.0,0.0,0.0,0.0,0.0,0.0,0.0,0.0,0.0,0.0,0.0,0.0,0.0,0.0,0.0,0.0,0.0,0.0,0.0,0.0,0.0,0.0,0.0,0.0,0.0,0.0,0.0,0.0,0.0,0.0,0.0,0.0,0.0,0.0,0.0,0.0,0.0,0.0,0.0,0.0,0.0,0.0,0.0,0.0,0.0,0.0,0.0,0.0,0.0,0.0,0.0,0.0,0.0,0.0,0.0,0.0,0.0,0.0,0.0,0.0,0.0,0.0,0.0,0.0,0.0,0.0,0.0,0.0,0.0,0.0,0.0,0.0,0.0,0.0,0.0,0.0,0.0,0.0,0.0,0.0,0.0,0.0,0.0,0.0,0.0,0.0,0.0,0.0,0.0,0.0,0.0,0.0,0.0,0.0,0.0,0.0,0.0,0.0,0.0,0.0,0.0,0.0,0.0,0.0,0.0,0.0,0.0,0.0,0.0,0.0,0.0,0.0,0.0,0.0,0.0,0.0,0.0,0.0,0.0,0.0,0.0,0.0,0.0,0.0,0.0,0.0,0.0,0.0,0.0,0.0,0.0,0.0,0.0,0.0,0.0,0.0,0.0,0.0,0.0,0.0,0.0,0.0,0.0,0.0,0.0,0.0,0.0,0.0,0.0,0.0,0.0,0.0,0.0,0.0,0.0,0.0,0.0,0.0,0.0,0.0,0.0,0.0,0.0,0.0,0.0,0.0,0.0,0.0,0.0,0.0,0.0,0.0,0.0,0.0,0.0,0.0,0.0,0.0,0.0,0.0,0.0,0.0,0.0,0.0,0.0,0.0,0.0,0.0,0.0,0.0,0.0,0.0,0.0,0.0,0.0,0.0,0.0,0.0,0.0,0.0,0.0,0.0,0.0,0.0,0.0,0.0,0.0,0.0,0.0,0.0,0.0,0.0,0.0,0.0,0.0,0.0,0.0,0.0,0.0,0.0,0.0,0.0,0.0,0.0,0.0,0.0,0.0,0.0,0.0,0.0,0.0,0.0,0.0,0.0,0.0,0.0,0.0,0.0,0.0,0.0,0.0,0.0,0.0,0.0,0.0,0.0,0.0,0.0,0.0,0.0,0.0,0.0,0.0,0.0,0.0,0.0,0.0,0.0,0.0,0.0,0.0,0.0,0.0,0.0,0.0,0.0,0.0,0.0,0.0,0.0,0.0,0.0,0.0,0.0,0.0,0.0,0.0,0.0,0.0,0.0,0.0,0.0,0.0,0.0,0.0,0.0,0.0,0.0,0.0,0.0,0.0,0.0,0.0,0.0,0.0,0.0,0.0,0.0,0.0,0.0,0.0,0.0,0.0,0.0,0.0,0.0,0.0,0.0,0.0,0.0,0.0,0.0,0.0,0.0,0.0,0.0,0.0,0.0,0.0,0.0,0.0,0.0,0.0,0.0,0.0,0.0,0.0,0.0,0.0,0.0,0.0,0.0,0.0,0.0,0.0,0.0,0.0,0.0,0.0,0.0,0.0,0.0,0.0,0.0,0.0,0.0,0.0,0.0,0.0,0.0,0.0,0.0,0.0,0.0,0.0,0.0,0.0,0.0,0.0,0.0,0.0,0.0,0.0,0.0,0.0,0.0,0.0,0.0,0.0,0.0,0.0,0.0,0.0,0.0,0.0,0.0,0.0,0.0,0.0,0.0,0.0,0.0,0.0,0.0,0.0,0.0,0.0,0.0,0.0,0.0,0.0,0.0,0.0,0.0,0.0,0.0,0.0,0.0,0.0,0.0,0.0,0.0,0.0,0.0,0.0,0.0,0.0,0.0,0.0,0.0,0.0,0.0,0.0,0.0,0.0,0.0,0.0,0.0,0.0,0.0,0.0,0.0,0.0,0.0,0.0,0.0,0.0,0.0,0.0,0.0,0.0,0.0,0.0,0.0,0.0,0.0,0.0,0.0,0.0,0.0,0.0,0.0,0.0,0.0,0.0,0.0,0.0,0.0,0.0,0.0,0.0,0.0,0.0,0.0,0.0,0.0,0.0,0.0,0.0,0.0,0.0,0.0,0.0,0.0,0.0,0.0,0.0,0.0,0.0,0.0,0.0,0.0,0.0,0.0,0.0,0.0,0.0,0.0,0.0,0.0,0.0,0.0,0.0,0.0,0.0,0.0,0.0,0.0,0.0,0.0,0.0,0.0,0.0,0.0,0.0,0.0,0.0,0.0,0.0,0.0,0.0,0.0,0.0,0.0,0.0,0.0,0.0,0.0,0.0,0.0,0.0,0.0,0.0,0.0,0.0,0.0,0.0,0.0,0.0,0.0,0.0,0.0,0.0,0.0,0.0,0.0,0.0,0.0,0.0,0.0,0.0,0.0,0.0,0.0,0.0,0.0,0.0,0.0,0.0,0.0,0.0,0.0,0.0,0.0,0.0,0.0,0.0,0.0,0.0,0.0,0.0,0.0,0.0,0.0,0.0,0.0,0.0,0.0,0.0,0.0,0.0,0.0,0.0,0.0,0.0,0.0,0.0,0.0,0.0,0.0,0.0,0.0,0.0,0.0,0.0,0.0,0.0,0.0,0.0,0.0,0.0,0.0,0.0,0.0,0.0,0.0,0.0,0.0,0.0,0.0,0.0,0.0,0.0,0.0,0.0,0.0,0.0,0.0,0.0,0.0,0.0,0.0,0.0,0.0,0.0,0.0,0.0,0.0,0.0,0.0,0.0,0.0,0.0,0.0,0.0,0.0,0.0,0.0,0.0,0.0,0.0,0.0,0.0,0.0,0.0,0.0,0.0,0.0,0.0,0.0,0.0,0.0,0.0,0.0,0.0,0.0,0.0,0.0,0.0,0.0,0.0,0.0,0.0,0.0,0.0,0.0,0.0,0.0,0.0,0.0,0.0,0.0,0.0,0.0,0.0,0.0,0.0,0.0,0.0,0.0,0.0,0.0,0.0,0.0,0.0,0.0,0.0,0.0,0.0,0.0,0.0,0.0,0.0,0.0,0.0,0.0,0.0,0.0,0.0,0.0,0.0,0.0,0.0,0.0,0.0,0.0,0.0,0.0,0.0,0.0,0.0,0.0,-0.019074429,0.050757967,-0.0084287515,0.011350305,0.136355,0.015259771,-0.075671025,0.029521327,0.13516536,0.021872034,-0.10036212,-0.017144969,0.004130105,-0.044330593,-0.014569002,0.015807148,-0.073853634,0.005041244,-0.07839244,-0.043950092,0.02639066,0.04839223,-0.030627675,-0.03292784,0.021494312,0.08125751,-0.08223429,-0.10219751,-0.05449968,0.035899185,0.09798963,-0.030096091,0.04514194,0.027025575,0.07045455,0.098285876,0.043427058,-0.039915618,0.037374876,0.06741863,-0.014687895,0.025998112,-0.021282943,0.021987386,-0.034944095,-0.0019694895,-0.08153817,-0.015363714,0.03522283,-0.03359111,0.043053474,-0.0341717,0.016170394,-0.035205778,-0.02864376,0.0897901,-0.102483556,0.00364099,-0.009967047,0.047478847,0.020781452,0.09302314,-0.03472975,0.09246569,0.0056796833,0.04478079,0.06837299,0.02647125,0.06106079,0.023619907,0.042827006,-0.021577863,-0.009113995,0.039517764,0.09152737,-0.04755388,0.007778341,0.017574927,0.065906495,0.04184362,-0.049220856,0.03807928,-0.008663009,0.0038430342,-0.06350726,0.043847796,0.07865981,-0.06393515,0.05139825,0.02359225,-0.0025187547,-0.03221231,0.006355142,0.001633343,0.08330611,-0.09081733,-0.02327884,-0.11050289,0.017421376,-0.1014561,0.07824674,0.04501708,0.06789646,0.021176063,0.003114123,0.08882229,0.07303839,-0.008780188,-0.095997356,-0.05099838,-0.039200194,-0.017213885,0.01488127,-0.025865952,-0.09312948,0.09949936,-0.012106859,-0.06408971,0.05205373,0.056829415,0.026940469,0.007337739,-0.03549868,0.1360654,0.040317893,-0.0096658245,-0.06832042,-0.03844661,0.030672617,0.032056663,-0.09579292,-0.025476525,0.035436034,0.041757587,0.05110927,0.056495935,0.08147159,-0.028514588,-0.035102583,-0.011668138,-0.011010591,0.061395444,-0.047665246,0.03257107,-0.03402743,-0.021672927,0.05974193,0.0395571,-0.03204219,-0.050101765,-0.03335768,-0.021035949,0.02684343,0.01772271,0.050079446,-0.0404712,-0.13479207,0.006426398,-0.0058277384,-0.081623055,-0.028863396,-0.014539383,0.065498605,-0.0023005882,-0.07103292,0.053266987,0.085406415,0.06006579,-0.076454595,-0.02022236,-0.05360124,0.07136502,0.0485309,0.13064213,0.024931688,-0.038278468,0.10725652,0.013814729,0.043701377,0.030813167,-0.06499793,-0.07902537,0.03222629,0.026420921,0.026784146,0.0019123923,-0.029225,-0.095740594,0.007730801,0.031188045,0.038345195,-0.0050982363,0.039899454,0.09630937,0.018795859,0.06556919,-0.01003581,0.05222529,0.0049477667,-0.07241244,-0.060859796,0.04752656,-0.031094294,-0.02704224,-0.05324192,0.036081605,0.036766388,0.049190626,0.057465646,-0.019651253,0.059090164,0.047790624,-0.031170098,-0.018876676,0.10784797,0.07192829,0.04328294,0.013742295,-0.004255388,-0.01333364,-0.08601313,-0.022581028,0.06760533,-0.023021683,-0.010893838,-0.061824955,-0.0023079065,0.0014163957,-0.03172486,0.0055496027,0.020175697,0.026662258,0.0055783642,0.00059463986,-0.04044602,-0.022929674,0.029990384,0.050226077,0.05014976,0.025443548,-0.006253076,0.04162062,-0.023336442,0.020843359,0.02130538,0.055963363,0.05428943,-0.0015679891,0.12101413,-0.08367474,0.05192981,0.014724394,0.019937167,-0.011225584,-0.028666776,0.069486246,-0.0040164837,0.03882888,-0.013000749,0.03504181,0.055094015,0.005847661,-0.015405283,0.007893458,0.061853174,0.026498964,-0.027505608,-0.02389013,-0.00030088008,0.009361575,-0.016487353,-0.008190256,-0.032721896,0.0078002387,-0.03824791,0.014951396,0.017828414,0.042072903,0.0012887667,-0.04766613,-0.00963553,0.04187184,-0.011791272,-0.036936544,-0.037772696,0.029372223,0.04653079,-0.02367025,0.030343343,-0.0067613907,0.019788995,0.029594528,0.026577555,-0.018869294,0.01060058,0.012491418,-0.009252533,0.0070446073,-0.019680725,0.024034826,-0.042763084,-0.0036437912,-0.043660343,-0.0002090685,0.0385792,-0.00415004,0.010250522,-0.016415183,0.046111044,-0.00926752,-0.004225075,0.05927291,-0.044943493,-0.021034477,0.00015130796,-0.0012064201,0.031218577,0.025309628,-0.00428804,0.019087786,-0.029952617,-0.0006788731,0.043526683,-0.00082883507,0.031735297,-0.035365496,0.032508597,0.004731064,-0.01982068,0.019992888,0.034259196,-0.018934077,0.010291224,-0.025364585,0.041304097,0.024357479,-0.031203434,0.04192229,0.037481412,-0.018157542,-0.012064679,0.015578165,0.012930371,-0.030141136,0.030142445,0.014744655,0.012005746,0.0010653245,0.022209425,-0.02044284,0.03376348,-0.031076236,-0.036455184,-0.026080593,-0.010221544,-0.0066101137,0.039711524,0.027766952,0.050484546,0.0030232558,-0.016668275,0.046703696,-0.023942724,0.006444702,-0.053935856,-0.037798326,0.010395216,-0.002132405,0.0022184749,-0.0067033553,-0.03773886,0.05988629,0.0036302495,-0.02965794,0.0080477,0.038158633,0.029848572,-0.023359418,-0.01631166,0.027700063,0.014672966,0.004418226,-0.046442524,-0.012294779,0.0022741961,0.006335843,-0.007817013,-0.011499794,0.027401362,0.02479641,0.040107656,0.036367755,0.021717418,0.0026467284,-0.0056082956,-0.004796096,-0.0005676576,0.03777599,-0.022037158,0.0063277995,0.00051420066,-0.01543704,0.037050422,0.01096745,-0.027765019,-0.03280906,-0.015375258,-0.039152306,0.03843279,0.012293493,0.015308709,-0.0050455253,-0.064823434,0.0039931294,-0.017425917,-0.037003152,-0.024515815,-0.0106572285,0.02054873,-0.012025511,-0.065691926,0.0224444,0.056296963,0.03524348,-0.02017206,-0.014508941,-0.010715967,0.025178941,0.049609378,0.0138131315,-0.012896983,-0.011933982,0.0351615,0.026187953,-0.021417284,0.011681472,-0.039998364,-0.0340681,0.046600897,-0.011503862,-0.0010691163,-0.010591824,-0.022297448,-0.055034872,0.025387,0.008341447,0.008344565,-0.017628528,0.015522775,0.040203083,-0.009506174,0.018396672,0.0046331687,0.015005225,-0.027937485,-0.047466263,-0.021543603,0.035560414,-0.011203614,0.0005508792,-0.018592581,0.0106087625,-0.0015390341,0.019920649,-0.025715735,-0.005485219,0.016999157,0.015685843,-0.008119023,-0.0035526764,0.00583749,0.04682744,0.004390318,0.0011609431,-0.006507862,-0.0038633482,-0.04026548,-0.03222505,0.036339547,0.022985991,-0.013155594,-0.05692992,0.008182199,0.0069591724,0.0047140634,0.04737876,0.006315719,0.031509154,0.0072926506,-0.021152629,-0.05942632,-0.02786213,0.010358091,0.040161565,0.037551437,0.019126268,0.006173921,0.0421388,-0.011078348,0.014649705,0.011448971,0.06122492,0.031365976,0.027254738,0.047290932,-0.04972901,0.03071982,-0.034997,-0.016695214,-0.02767019,-0.0031264406,0.027787356,0.0,0.0,0.0,0.0,0.0,0.0,0.0,0.0,0.0,0.0,0.0,0.0,0.0,0.0,0.0,0.0,0.0,0.0,0.0,0.0,0.0,0.0,0.0,0.0,0.0,0.0,0.0,0.0,0.0,0.0,0.0,0.0,0.0,0.0,0.0,0.0,0.0,0.0,0.0,0.0,0.0,0.0,0.0,0.0,0.0,0.0,0.0,0.0,0.0,0.0,0.0,0.0,0.0,0.0,0.0,0.0,0.0,0.0,0.0,0.0,0.0,0.0,0.0,0.0,0.0,0.0,0.0,0.0,0.0,0.0,0.0,0.0,0.0,0.0,0.0,0.0,0.0,0.0,0.0,0.0,0.0,0.0,0.0,0.0,0.0,0.0,0.0,0.0,0.0,0.0,0.0,0.0,0.0,0.0,0.0,0.0,0.0,0.0,0.0,0.0,0.0,0.0,0.0,0.0,0.0,0.0,0.0,0.0,0.0,0.0,0.0,0.0,0.0,0.0,0.0,0.0,0.0,0.0,0.0,0.0,0.0,0.0,0.0,0.0,0.0,0.0,0.0,0.0,0.0,0.0,0.0,0.0,0.0,0.0,0.0,0.0,0.0,0.0,0.0,0.0,0.0,0.0,0.0,0.0,0.0,0.0,0.0,0.0,0.0,0.0,0.0,0.0,0.0,0.0,0.0,0.0,0.0,0.0,0.0,0.0,0.0,0.0,0.0,0.0,0.0,0.0,0.0,0.0,0.0,0.0,0.0,0.0,0.0,0.0,0.0,0.0,0.0,0.0,0.0,0.0,0.0,0.0,0.0,0.0,0.0,0.0,0.0,0.0,0.0,0.0,0.0,0.0,0.0,0.0,0.0,0.0,0.0,0.0,0.0,0.0,0.0,0.0,0.0,0.0,0.0,0.0,0.0,0.0,0.0,0.0,0.0,0.0,0.0,0.0,0.0,0.0,0.0,0.0,0.0,0.0,0.0,0.0,0.0,0.0,0.0,0.0,0.0,0.0,0.0,0.0,0.0,0.0,0.0,0.0,0.0,0.0,0.0,0.0,0.0,0.0,0.0,0.0,0.0,0.0,0.0,0.0,0.0,0.0,0.0,0.0,0.0,0.0,0.0,0.0,0.0,0.0,0.0,0.0,0.0,0.0,0.0,0.0,0.0,0.0,0.0,0.0,0.0,0.0,0.0,0.0,0.0,0.0,0.0,0.0,0.0,0.0,0.0,0.0,0.0,0.0,0.0,0.0,0.0,0.0,0.0,0.0,0.0,0.0,0.0,0.0,0.0,0.0,0.0,0.0,0.0,0.0,0.0,0.0,0.0,0.0,0.0,0.0,0.0,0.0,0.0,0.0,0.0,0.0,0.0,0.0,0.0,0.0,0.0,0.0,0.0,0.0,0.0,0.0,0.0,0.0,0.0,0.0,0.0,0.0,0.0,0.0,0.0,0.0,0.0,0.0,0.0,0.0,0.0,0.0,0.0,0.0,0.0,0.0,0.0,0.0,0.0,0.0,0.0,0.0,0.0,0.0,0.0,0.0,0.0,0.0,0.0,0.0,0.0,0.0,0.0,0.0,0.0,0.0,0.0,0.0,0.0,0.0,0.0,0.0,0.0,0.0,0.0,0.0,0.0,0.0,0.0,0.0,0.0,0.0,0.0,0.0,0.0,0.0,0.0,0.0,0.0,0.0,0.0,0.0,0.0,0.0,0.0,0.0,0.0,0.0,0.0,0.0,0.0,0.0,0.0,0.0,0.0,0.0,0.0,0.0,0.0,0.0,0.0,0.0,0.0,0.0,0.0,0.0,0.0,0.0,0.0,0.0,0.0,0.0,0.0,0.0,0.0,0.0,0.0,0.0,0.0,0.0,0.0,0.0,0.0,0.0,0.0,0.0,0.0,0.0,0.0,0.0,0.0,0.0,0.0,0.0,0.0,0.0,0.0,0.0,0.0,0.0,0.0,0.0,0.0,0.0,0.0,0.0,0.0,0.0,0.0,0.0,0.0,0.0,0.0,0.0,0.0,0.0,0.0,0.0,0.0,0.0,0.0,0.0,0.0,0.0,0.0,0.0,0.0,0.0,0.0,0.0,0.0,0.0,0.0,0.0,0.0,0.0,0.0,0.0,0.0,0.0,0.0,0.0,0.0,0.0,0.0,0.0,0.0,0.0,0.0,0.0,0.0,0.0,0.0,0.0,0.0,0.0,0.0,0.0,0.0,0.0,0.0,0.0,0.0,0.0,0.0,0.0,0.0,0.0,0.0,0.0,0.0,0.0,0.0,0.0,0.0,0.0,0.0,0.0,0.0,0.0,0.0,0.0,0.0,0.0,0.0,0.0,0.0,0.0,0.0,0.0,0.0,0.0,0.0,0.0,0.0,0.0,0.0,0.0,0.0,0.0,0.0,0.0,0.0,0.0,0.0,0.0,0.0,0.0,0.0,0.0,0.0,0.0,0.0,0.0,0.0,0.0,0.0,0.0,0.0,0.0,0.0,0.0,0.0,0.0,0.0,0.0,0.0,0.0,0.0,0.0,0.0,0.0,0.0,0.0,0.0,0.0,0.0,0.0,0.0,0.0,0.0,0.0,0.0,0.0,0.0,0.0,0.0,0.0,0.0,0.0,0.0,0.0,0.0,0.0,0.0,0.0,0.0,0.0,0.0,0.0,0.0,0.0,0.0,0.0,0.0,0.0,0.0,0.0,0.0,0.0,0.0,0.0,0.0,0.0,0.0,0.0,0.0,0.0,0.0,0.0,0.0,0.0,0.0,0.0,0.0,0.0,0.0,0.0,0.0,0.0,0.0,0.0,0.0,0.0,0.0,0.0,0.0,0.0,0.0,0.0,0.0,0.0,0.0,0.0,0.0,0.0,0.0,0.0,0.0,0.0,0.0,0.0,0.0,0.0,0.0,0.0,0.0,0.0,0.0,0.0,0.0,0.0,0.0,0.0,0.0,0.0,0.0,0.0,0.0,0.0,0.0,0.0,0.0,0.0,0.0,0.0,0.0,0.0,0.0,0.0,0.0,0.0,0.0,0.0,0.0,0.0,0.0,0.0,0.0,0.0,0.0,0.0,0.0,0.0,0.0,0.0,0.0,0.0,0.0,0.0,0.0,0.0,0.0,0.0,0.0,0.0,0.0,0.0,0.0,0.0,0.0,0.0,0.0,0.0,0.0,0.0,0.0,0.0,0.0,0.0,0.0,0.0,0.0,0.0,0.0,0.0,0.0,0.0,0.0,0.0,0.0,0.0,0.0,0.0,0.0,0.0,0.0,0.0,0.0,0.0,0.0,0.0,0.0,0.0,0.0,0.0,0.0,0.0,0.0,0.0,0.0,0.0,0.0,0.0,0.0,0.0,0.0,0.0,0.0,0.0,0.0,0.0,0.0,0.0,0.0,0.0,0.0,0.0,0.0,0.0,0.0,0.0,0.0,0.0,0.0,0.0,0.0,0.0,0.0,0.0,0.0,0.0,0.0,0.0,0.0,0.0,0.0,0.0,0.0,0.0,0.0,0.0,0.0,0.0,0.0,0.0,0.0,0.0,0.0,0.0,0.0,0.0,0.0,0.0,0.0,0.0,0.0,0.0,0.0,0.0,0.0,0.0,0.0,0.0,0.0,0.0,0.0,0.0,0.0,0.0,0.0,0.0,0.0,0.0,0.0,0.0,0.0,0.0,0.0,0.0,0.0,0.0,0.0,0.0,0.0,0.0,0.0,0.0,0.0,0.0,0.0,0.0,0.0,0.0,0.0,0.0,0.0,0.0,0.0,0.0,0.0,0.0,0.0,0.0,0.0,0.0,0.0,0.0,0.0,0.0,0.0,0.0,0.0,0.0,0.0,0.0,0.0,0.0,0.0,0.0,0.0,0.0,0.0,0.0,0.0,0.0,0.0,0.0,0.0,0.0,0.0,0.0,0.0,0.0,0.0,0.0,0.0,0.0,0.0,0.0,0.0,0.0,0.0,0.0,0.0,0.0,0.0,0.0,0.0,0.0,0.0,0.0,0.0,0.0,0.0,0.0,0.0,0.0,0.0,0.0,0.0,0.0,0.0,0.0,0.0,0.0,0.0,0.0,0.0,0.0,0.0,0.0,0.0,0.0,0.0,0.0,0.0,0.0,0.0,0.0,0.0,0.0,0.0,0.0,0.0,0.0,0.0,0.0,0.0,0.0,0.0,0.0,0.0,0.0,0.0,0.0,0.0,0.0,0.0,0.0,0.0,0.0,0.0,0.0,0.0,0.0,0.0,0.0,0.0,0.0,0.0,0.0,0.0,0.0,0.0,0.0,0.0,0.0,0.0,0.0,0.0,0.0,0.0,0.0,0.0,0.0,0.0,0.0,0.0,0.0,0.0,0.0,0.0,0.0,0.0,0.0,0.0,0.0,0.0,0.0,0.0,0.0,0.0,0.0,0.0,0.0,0.0,0.0,0.0,0.0,0.0,0.0,0.0,0.0,0.0,0.0,0.0,0.0,0.0,0.0,0.0,0.0,0.0,0.0,0.0,0.0,0.0,0.0,0.0,0.0,0.0,0.0,0.0,0.0,0.0,0.0,0.0,0.0,0.0,0.0,0.0,0.0,0.0,0.0,0.0,0.0,0.0,0.0,0.0,0.0,0.0,0.0,0.0,0.0,0.0,0.0,0.0,0.0,0.0,0.0,0.0,0.0,0.0,0.0,0.0,0.0,0.0,0.0,0.0,0.0,0.0,0.0,0.0,0.0,0.0,0.0,0.0,0.0,0.0,0.0,0.0,0.0,0.0,0.0,0.0,0.0,0.0,0.0,0.0,0.0,0.0,0.0,0.0,0.0,0.0,0.0,0.0,0.0,0.0,0.0,0.0,0.0,0.0,0.0,0.0,0.0,0.0,0.0,0.0,0.0,0.0,0.0,0.0,0.0,0.0,0.0,0.0,0.0,0.0,0.0,0.0,0.0,0.0,0.0,0.0,0.0,0.0,0.0,0.0,0.0,0.0,0.0,0.0,0.0,0.0,0.0,0.0,0.0,0.0,0.0,0.0,0.0,0.0,0.0,0.0,0.0,0.0,0.0,0.0,0.0,0.0,0.0,0.0,0.0,0.0,0.0,0.0,0.0,0.0,0.0,0.0,0.0,0.0,0.0,0.0,0.0,0.0,0.0,0.0,0.0,0.0,0.0,0.0,0.0,0.0,0.0,0.0,0.0,0.0,0.0,0.0,0.0,0.0,0.0,0.0,0.0,0.0,0.0,0.0,0.0,0.0,0.0,0.0,0.0,0.0,0.0,0.0,0.0,0.0,0.0,0.0,0.0,0.0,0.0,0.0,0.0,0.0,0.0,0.0,0.0,0.0,0.0,0.0,0.0,0.0,0.0,0.0,0.0,0.0,0.0,0.0,0.0,0.0,0.0,0.0,0.0,0.0,0.0,0.0,0.0,0.0,0.0,0.0,0.0,0.0,0.0,0.0,0.0,0.0,0.0,0.0,0.0,0.0,0.0,0.0,0.0,0.0,0.0,0.0,0.0,0.0,0.0,0.0,0.0,0.0,0.0,0.0,0.0,0.0,0.0,0.0,0.0,0.0,0.0,0.0,0.0,0.0,0.0,0.0,0.0,0.0,0.0,0.0,0.0,0.0,0.0,0.0,0.0,0.0,0.0,0.0,0.0,0.0,0.0,0.0,0.0,0.0,0.0,0.0,0.0,0.0,0.0,0.0,0.0,0.0,0.0,0.0,0.0,0.0,0.0,0.0,0.0,0.0,0.0,0.0,0.0,0.0,0.0,0.0,0.0,0.0,0.0,0.0,0.0,0.0,0.0,0.0,0.0,0.0,0.0,0.0,0.0,0.0,0.0,0.0,0.0,0.0,0.0,0.0,0.0,0.0,0.0,0.0,0.0,0.0,0.0,0.0,0.0,0.0,0.0,0.0,0.0,0.0,0.0,0.0,0.0,0.0,0.0,0.0,0.0,0.0,0.0,0.0,0.0,0.0,0.0,0.0,0.0,0.0,0.0,0.0,0.0,0.0,0.0,0.0,0.0,0.0,0.0,0.0,0.0,0.0,0.0,0.0,0.0,0.0,0.0,0.0,0.0,0.0,0.0,0.0,0.0,0.0,0.0,0.0,0.0,0.0,0.0,0.0,0.0,0.0,0.0,0.0,0.0,0.0,0.0,0.0,0.0,0.0,0.0,0.0,0.0,0.0,0.0,0.0,0.0,0.0,0.0,0.0,0.0,0.0,0.0,0.0,0.0,0.0,0.0,0.0,0.0,0.0,0.0,0.0,0.0,0.0,0.0,0.0,0.0,0.0,0.0,0.0,0.0,0.0,0.0,0.0,0.0,0.0,0.0,0.0,0.0,0.0,0.0,0.0,0.0,0.0,0.0,0.0,0.0,0.0,0.0,0.0,0.0,0.0,0.0,0.0,0.0,0.0,0.0,0.0,0.0,0.0,0.0,0.0,0.0,0.0,0.0,0.0,0.0,0.0,0.0,0.0,0.0,0.0,0.0,0.0,0.0,0.0,0.0,0.0,0.0,0.0,0.0,0.0,0.0,0.0,0.0,0.0,0.0,0.0,0.0,0.0,0.0,0.0,0.0,0.0,0.0,0.0,0.0,0.0,0.0,0.0,0.0,0.0,0.0,0.0,0.0,0.0,0.0,0.0,0.0,0.0,0.0,0.0,0.0,0.0,0.0,0.0,0.0,0.0,0.0,0.0,0.0,0.0,0.0,0.0,0.0,0.0,0.0,0.0,0.0,0.0,0.0,0.0,0.0,0.0,0.0,0.0,0.0,0.0,0.0,0.0,0.0,0.0,0.0,0.0,0.0,0.0,0.0,0.0,0.0,0.0,0.0,0.0,0.0,0.0,0.0,0.0,0.0,0.0,0.0,0.0,0.0,0.0,0.0,0.0,0.0,0.0,0.0,0.0,0.0,0.0,0.0,0.0,0.0,0.0,0.0,0.0,0.0,0.0,0.0,0.0,0.0,0.0,0.0,0.0,0.0,0.0,0.0,0.0,0.0,0.0,0.0,0.0,0.0,0.0,0.0,0.0,0.0,0.0,0.0,0.0,0.0,0.0,0.0,0.0,0.0,0.0,0.0,0.0,0.0,0.0,0.0,0.0,0.0,0.0,0.0,0.0,0.0,0.0,0.0,0.0,0.0,0.0,0.0,0.0,0.0,0.0,0.0,0.0,0.0,0.0,0.0,0.0,0.0,0.0,0.0,0.0,0.0,0.0,0.0,0.0,0.0,0.0,0.0,0.0,0.0,0.0,0.0,0.0,0.0,0.0,0.0,0.0,0.0,0.0,0.0,0.0,0.0,0.0,0.0,0.0,0.0,0.0,0.0,0.0,0.0,0.0,0.0,0.0,0.0,0.0,0.0,0.0,0.0,0.0,0.0,0.0,0.0,0.0,0.0,0.0,0.0,0.0,0.0,0.0,0.0,0.0,0.0,0.0,0.0,0.0,0.0,0.0,0.0,0.0,0.0,0.0,0.0,0.0,0.0,0.0,0.0,0.0,0.0,0.0,0.0,0.0,0.0,0.0,0.0,0.0,0.0,0.0,0.0,0.0,0.0,0.0,0.0,0.0,0.0,0.0,0.0,0.0,0.0,0.0,0.0,0.0,0.0,0.0,0.0,0.0,0.0,0.0,0.0,0.0,0.0,0.0,0.0,0.0,0.0,0.0,0.0,0.0,0.0,0.0,0.0,0.0,0.0,0.0,0.0,0.0,0.0,0.0,0.0,0.0,0.0,0.0,0.0,0.0,0.0,0.0,0.0,0.0,0.0,0.0,0.0,0.0,0.0,0.0,0.0,0.0,0.0,0.0,0.0,0.0,0.0,0.0,0.0,0.0,0.0,0.0,0.0,0.0,0.0,0.0,0.0,0.0,0.0,0.0,0.0,0.0,0.0,0.0,0.0,0.0,0.0,0.0,0.0,0.0,0.0,0.0,0.0,0.0,0.0,0.0,0.0,0.0,0.0,0.0,0.0,0.0,0.0,0.0,0.0,0.0,0.0,0.0,0.0,0.0,0.0,0.0,0.0,0.0,0.0,0.0,0.0,0.0,0.0,0.0,0.0,0.0,0.0,0.0,0.0,0.0,0.0,0.0,0.0,0.0,0.0,0.0,0.0,0.0,0.0,0.0,0.0,0.0,0.0,0.0,0.0,0.0,0.0,0.0,0.0,0.0,0.0,0.0,0.0,0.0,0.0,0.0,0.0,0.0,0.0,0.0,0.0,0.0,0.0,0.0,0.0,0.0,0.0,0.0,0.0,0.0,0.0,0.0,0.0,0.0,0.0,0.0,0.0,0.0,0.0,0.0,0.0,0.0,0.0,0.0,0.0,0.0,0.0,0.0,0.0,0.0,0.0,0.0,0.0,0.0,0.0,0.0,0.0,0.0,0.0,0.0,0.0,0.0,0.0,0.0,0.0,0.0,0.0,0.0,0.0,0.0,0.0,0.0,0.0,0.0,0.0,0.0,0.0,0.0,0.0,0.0,0.0,0.0,0.0,0.0,0.0,0.0,0.0,0.0,0.0,0.0,0.0,0.0,0.0,0.0,0.0,0.0,0.0,0.0,0.0,0.0,0.0,0.0,0.0,0.0,0.0,0.0,0.0,0.0,0.0,0.0,0.0,0.0,0.0,0.0,0.0,0.0,0.0,0.0,0.0,0.0,0.0,0.0,0.0,0.0,0.0,0.0,0.0,0.0,0.0,0.0,0.0,0.0,0.0,0.0,0.0,0.0,0.0,0.0,0.0,0.0,0.0,0.0,0.0,0.0,0.0,0.0,0.0,0.0,0.0,0.0,0.0,0.0,0.0,0.0,0.0,0.0,0.0,0.0,0.0,0.0,0.0,0.0,0.0,0.0,0.0,0.0,0.0,0.0,0.0,0.0,0.0,0.0,0.0,0.0,0.0,0.0,0.0,0.0,0.0,0.0,0.0,0.0,0.0,0.0,0.0,0.0,0.0,0.0,0.0,0.0,0.0,0.0,0.0,0.0,0.0,0.0,0.0,0.0,0.0,0.0,0.0,0.0,0.0,0.0,0.0,0.0,0.0,0.0,0.0,0.0,0.0,0.0,0.0,0.0,0.0,0.0,0.0,0.0,0.0,0.0,0.0,0.0,0.0,0.0,0.0,0.0,0.0,0.0,0.0,0.0,0.0,0.0,0.0,0.0,0.0,0.0,0.0,0.0,0.0,0.0,0.0,0.0,0.0,0.0,0.0,0.0,0.0,0.0,0.0,0.0,0.0,0.0,0.0,0.0,0.0,0.0,0.0,0.0,0.0,0.0,0.0,0.0,0.0,0.0,0.0,0.0,0.0,0.0,0.0,0.0,0.0,0.0,0.0,0.0,0.0,0.0,0.0,0.0,0.0,0.0,0.0,0.0,0.0,0.0,0.0,0.0,0.0,0.0,0.0,0.0,0.0,0.0,0.0,0.0,0.0,0.0,0.0,0.0,0.0,0.0,0.0,0.0,0.0,0.0,0.0,0.0,0.0,0.0,0.0,0.0,0.0,0.0,0.0,0.0,0.0,0.0,0.0,0.0,0.0,0.0,0.0,0.0,0.0,0.0,0.0,0.0,0.0,0.0,0.0,0.0,0.0,0.0,0.0,0.0,0.0,0.0,0.0,0.0,0.0,0.0,0.0,0.0,0.0,0.0,0.0,0.0,0.0,0.0,0.0,0.0,0.0,0.0,0.0,0.0,0.0,0.0,0.0,0.0,0.0,0.0,0.0,0.0,0.0,0.0,0.0,0.0,0.0,0.0,0.0,0.0,0.0,0.0,0.0,0.0,0.0,0.0,0.0,0.0,0.0,0.0,0.0,0.0,0.0,0.0,0.0,0.0,0.0,0.0,0.0,0.0,0.0,0.0,0.0,0.0,0.0,0.0,0.0,0.0,0.0,0.0,0.0,0.0,0.0,0.0,0.0,0.0,0.0,0.0,0.0,0.0,0.0,0.0,0.0,0.0,0.0,0.0,0.0,0.0,0.0,0.0,0.0,0.0,0.0,0.0,0.0,0.0,0.0,0.0,0.0,0.0,0.0,0.0,0.0,0.0,0.0,0.0,0.0,0.0,0.0,0.0,0.0,0.0,0.0,0.0,0.0,0.0,0.0,0.0,0.0,0.0,0.0,0.0,0.0,0.0,0.0,0.0,0.0,0.0,0.0,0.0,0.0,0.0,0.0,0.0,0.0,0.0,0.0,0.0,0.0,0.0,0.0,0.0,0.0,0.0,0.0,0.0,0.0,0.0,0.0,0.0,0.0,0.0,0.0,0.0,0.0,0.0,0.0,0.0,0.0,0.0,0.0,0.0,0.0,0.0,0.0,0.0,0.0,0.0,0.0,0.0,0.0,0.0,0.0,0.0,0.0,0.0,0.0,0.0,0.0,0.0,0.0,0.0,0.0,0.0,0.0,0.0,0.0,0.0,0.0,0.0,0.0,0.0,0.0,0.0,0.0,0.0,0.0,0.0,0.0,0.0,0.0,0.0,0.0,0.0,0.0,0.0,0.0,0.0,0.0,0.0,0.0,0.0,0.0,0.0,0.0,0.0,0.0,0.0,0.0,0.0,0.0,0.0,0.0,0.0,0.0,0.0,0.0,0.0,0.0,0.0,0.0,0.0,0.0,0.0,0.0,0.0,0.0,0.0,0.0,0.0,0.0,0.0,0.0,0.0,0.0,0.0,0.0,0.0,0.0,0.0,0.0,0.0,0.0,0.0,0.0,0.0,0.0,0.0,0.0,0.0,0.0,0.0,0.0,0.0,0.0,0.0,0.0,0.0,0.0,0.0,0.0,0.0,0.0,0.0,0.0,0.0,0.0,0.0,0.0,0.0,0.0,0.0,0.0,0.0,0.0,0.0,0.0,0.0,0.0,0.0,0.0,0.0,0.0,0.0,0.0,0.0,0.0,0.0,0.0,0.0,0.0,0.0,0.0,0.0,0.0,0.0,0.0,0.0,0.0,0.0,0.0,0.0,0.0,0.0,0.0,0.0,0.0,0.0,0.0,0.0,0.0,0.0,0.0,0.0,0.0,0.0,0.0,0.0,0.0,0.0,0.0,0.0,0.0,0.0,0.0,0.0,0.0,0.0,0.0,0.0,0.0,0.0,0.0,0.0,0.0,0.0,0.0,0.0,0.0,0.0,0.0,0.0,0.0,0.0,0.0,0.0,0.0,0.0,0.0,0.0,0.0,0.0,0.0,0.0,0.0,0.0,0.0,0.0,0.0,0.0,0.0,0.0,0.0,0.0,0.0,0.0,0.0,0.0,0.0,0.0,0.0,0.0,0.0,0.0,0.0,0.0,0.0,0.0,0.0,0.0,0.0,0.0,0.0,0.0,0.0,0.0,0.0,0.0,0.0,0.0,0.0,0.0,0.0,0.0,0.0,0.0,0.0,0.0,0.0,0.0,0.0,0.0,0.0,0.0,0.0,0.0,0.0,0.0,0.0,0.0,0.0,0.0,0.0,0.0,0.0,0.0,0.0,0.0,0.0,0.0,0.0,0.0,0.0,0.0,0.0,0.0,0.0,0.0,0.0,0.0,0.0,0.0,0.0,0.0,0.0,0.0,0.0,0.0,0.0,0.0,0.0,0.0,0.0,0.0,0.0,0.0,0.0,0.0,0.0,0.0,0.0,0.0,0.0,0.0,0.0,0.0,0.0,0.0,0.0,0.0,0.0,0.0,0.0,0.0,0.0,0.0,0.0,0.0,0.0,0.0,0.0,0.0,0.0,0.0,0.0,0.0,0.0,0.0,0.0,0.0,0.0,0.0,0.0,0.0,0.0,0.0,0.0,0.0,0.0,0.0,0.0,0.0,0.0,0.0,0.0,0.0,0.0,0.0,0.0,0.0,0.0,0.0,0.0,0.0,0.0,0.0,0.0,0.0,0.0,0.0,0.0,0.0,0.0,0.0,0.0,0.0,0.0,0.0,0.0,0.0,0.0,0.0,0.0,0.0,0.0,0.0,0.0,0.0,0.0,0.0,0.0,0.0,0.0,0.0,0.0,0.0,0.0,0.0,0.0,0.0,0.0,0.0,0.0,0.0,0.0,0.0,0.0,0.0,0.0,0.0,0.0,0.0,0.0,0.0,0.0,0.0,0.0,0.0,0.0,0.0,0.0,0.0,0.0,0.0,0.0,0.0,0.0,0.0,0.0,0.0,0.0,0.0,0.0,0.0,0.0,0.0,0.0,0.0,0.0,0.0,0.0,0.0,0.0,0.0,0.0,0.0,0.0,0.0,0.0,0.0,0.0,0.0,0.0,0.0,0.0,0.0,0.0,0.0,0.0,0.0,0.0,0.0,0.0,0.0,0.0,0.0,0.0,0.0,0.0,0.0,0.0,0.0,0.0,0.0,0.0,0.0,0.0,0.0,0.0,0.0,0.0,0.0,0.0,0.0,0.0,0.0,0.0,0.0,0.0,0.0,0.0,0.0,0.0,0.0,0.0,0.0,0.0,0.0,0.0,0.0,0.0,0.0,0.0,0.0,0.0,0.0,0.0,0.0,0.0,0.0,0.0,0.0,0.0,0.0,0.0,0.0,0.0,0.0,0.0,0.0,0.0,0.0,0.0,0.0,0.0,0.0,0.0,0.0,0.0,0.0,0.0,0.0,0.0,0.0,0.0,0.0,0.0,0.0,0.0,0.0,0.0,0.0,0.0,0.0,0.0,0.0,0.0,0.0,0.0,0.0,0.0,0.0,0.0,0.0,0.0,0.0,0.0,0.0,0.0,0.0,0.0,0.0,0.0,0.0,0.0,0.0,0.0,0.0,0.0,0.0,0.0,0.0,0.0,0.0,0.0,0.0,0.0,0.0,0.0,0.0,0.0,0.0,0.0,0.0,0.0,0.0,0.0,0.0,0.0,0.0,0.0,0.0,0.0,0.0,0.0,0.0,0.0,0.0,0.0,0.0,0.0,0.0,0.0,0.0,0.0,0.0,0.0,0.0,0.0,0.0,0.0,0.0,0.0,0.0,0.0,0.0,0.0,0.0,0.0,0.0,0.0,0.0,0.0,0.0,0.0,0.0,0.0,0.0,0.0,0.0,0.0,0.0,0.0,0.0,0.0,0.0,0.0,0.0,0.0,0.0,0.0,0.0,0.0,0.0,0.0,0.0,0.0,0.0,0.0,0.0,0.0,0.0,0.0,0.0,0.0,0.0,0.0,0.0,0.0,0.0,0.0,0.0,0.0,0.0,0.0,0.0,0.0,0.0,0.0,0.0,0.0,0.0,0.0,0.0,0.0,0.0,0.0,0.0,0.0,0.0,0.0,0.0,0.0,0.0,0.0,0.0,0.0,0.0,0.0,0.0,0.0,0.0,0.0,0.0,0.0,0.0,0.0,0.0,0.0,0.0,0.0,0.0,0.0,0.0,0.0,0.0,0.0,0.0,0.0,0.0,0.0,0.0,0.0,0.0,0.0,0.0,0.0,0.0,0.0,0.0,0.0,0.0,0.0,0.0,0.0,0.0,0.0,0.0,0.0,0.0,0.0,0.0,0.0,0.0,0.0,0.0,0.0,0.0,0.0,0.0,0.0,0.0,0.0,0.0,0.0,0.0,0.0,0.0,0.0,0.0,0.0,0.0,0.0,0.0,0.0,0.0,0.0,0.0,0.0,0.0,0.0,0.0,0.0,0.0,0.0,0.0,0.0,0.0,0.0,0.0,0.0,0.0,0.0,0.0,0.0,0.0,0.0,0.0,0.0,0.0,0.0,0.0,0.0,0.0,0.0,0.0,0.0,0.0,0.0,0.0,0.0,0.0,0.0,0.0,0.0,0.0,0.0,0.0,0.0,0.0,0.0,0.0,0.0,0.0,0.0,0.0,0.0,0.0,0.0,0.0,0.0,0.0,0.0,0.0,0.0,0.0,0.0,0.0,0.0,0.0,0.0,0.0,0.0,0.0,0.0,0.0,0.0,0.0,0.0,0.0,0.0,0.0,0.0,0.0,0.0,0.0,0.0,0.0,0.0,0.0,0.0,0.0,0.0,0.0,0.0,0.0,0.0,0.0,0.0,0.0,0.0,0.0,0.0,0.0,0.0,0.0,0.0,0.0,0.0,0.0,0.0,0.0,0.0,0.0,0.0,0.0,0.0,0.0,0.0,0.0,0.0,0.0,0.0,0.0,0.0,0.0,0.0,0.0,0.0,0.0,0.0,0.0,0.0,0.0,0.0,0.0,0.0,0.0,0.0,0.0,0.0,0.0,0.0,0.0,0.0,0.0,0.0,0.0,0.0,0.0,0.0,0.0,0.0,0.0,0.0,0.0,0.0,0.0,0.0,0.0,0.0,0.0,0.0,0.0,0.0,0.0,0.0,0.0,0.0,0.0,0.0,0.0,0.0,0.0,0.0,0.0,0.0,0.0,0.0,0.0,0.0,0.0,0.0,0.0,0.0,0.0,0.0,0.0,0.0,0.0,0.0,0.0,0.0,0.0,0.0,0.0,0.0,0.0,0.0,0.0,0.0,0.0,0.0,0.0,0.0,0.0,0.0,0.0,0.0,0.0,0.0,0.0,0.0,0.0,0.0,0.0,0.0,0.0,0.0,0.0,0.0,0.0,0.0,0.0,0.0,0.0,0.0,0.0,0.0,0.0,0.0,0.0,0.0,0.0,0.0,0.0,0.0,0.0,0.0,0.0,0.0,0.0,0.0,0.0,0.0,0.0,0.0,0.0,0.0,0.0,0.0,0.0,0.0,0.0,0.0,0.0,0.0,0.0,0.0,0.0,0.0,0.0,0.0,0.0,0.0,0.0,0.0,0.0,0.0,0.0,0.0,0.0,0.0,0.0,0.0,0.0,0.0,0.0,0.0,0.0,0.0,0.0,0.0,0.0,0.0,0.0,0.0,0.0,0.0,0.0,0.0,0.0,0.0,0.0,0.0,0.0,0.0,0.0,0.0,0.0,0.0,0.0,0.0,0.0,0.0,0.0,0.0,0.0,0.0,0.0,0.0,0.0,0.0,0.0,0.0,0.0,0.0,0.0,0.0,0.0,0.0,0.0,0.0,0.0,0.0,0.0,0.0,0.0,0.0,0.0,0.0,0.0,0.0,0.0,0.0,0.0,0.0,0.0,0.0,0.0,0.0,0.0,0.0,0.0,0.0,0.0,0.0,0.0,0.0,0.0,0.0,0.0,0.0,0.0,0.0,0.0,0.0,0.0,0.0,0.0,0.0,0.0,0.0,0.0,0.0,0.0,0.0,0.0,0.0,0.0,0.0,0.0,0.0,0.0,0.0,0.0,0.0,0.0,0.0,0.0,0.0,0.0,0.0,0.0,0.0,0.0,0.0,0.0,0.0,0.0,0.0,0.0,0.0,0.0,0.0,0.0,0.0,0.0,0.0,0.0,0.0,0.0,0.0,0.0,0.0,0.0,0.0,0.0,0.0,0.0,0.0,0.0,0.0,0.0,0.0,0.0,0.0,0.0,0.0,0.0,0.0,0.0,0.0,0.0,0.0,0.0,0.0,0.0,0.0,0.0,0.0,0.0,0.0,0.0,0.0,0.0,0.0,0.0,0.0,0.0,0.0,0.0,0.0,0.0,0.0,0.0,0.0,0.0,0.0,0.0,0.0,0.0,0.0,0.0,0.0,0.0,0.0,0.0,0.0,0.0,0.0,0.0,0.0,0.0,0.0,0.0,0.0,0.0,0.0,0.0,0.0,0.0,0.0,0.0,0.0,0.0,0.0,0.0,0.0,0.0,0.0,0.0,0.0,0.0,0.0,0.0,0.0,0.0,0.0,0.0,0.0,0.0,0.0,0.0,0.0,0.0,0.0,0.0,0.0,0.0,0.0,0.0,0.0,0.0,0.0,0.0,0.0,0.0,0.0,0.0,0.0,0.0,0.0,0.0,0.0,0.0,0.0,0.0,0.0,0.0,0.0,0.0,0.0,0.0,0.0,0.0,0.0,0.0,0.0,0.0,0.0,0.0,0.0,0.0,0.0,0.0,0.0,0.0,0.0,0.0,0.0,0.0,0.0,0.0,0.0,0.0,0.0,0.0,0.0,0.0,0.0,0.0,0.0,0.0,0.0,0.0,0.0,0.0,0.0,0.0,0.0,0.0,0.0,0.0,0.0,0.0,0.0,0.0,0.0,0.0,0.0,0.0,0.0,0.0,0.0,0.0,0.0,0.0,0.0,0.0,0.0,0.0,0.0,0.0,0.0,0.0,0.0,0.0,0.0,0.0,0.0,0.0,0.0,0.0,0.0,0.0,0.0,0.0,0.0,0.0,0.0,0.0,0.0,0.0,0.0,0.0,0.0,0.0,0.0,0.0,0.0,0.0,0.0,0.0,0.0,0.0,0.0,0.0,0.0,0.0,0.0,0.0,0.0,0.0,0.0,0.0,0.0,0.0,0.0,0.0,0.0,0.0,0.0,0.0,0.0,0.0,0.0,0.0,0.0,0.0,0.0,0.0,0.0,0.0,0.0,0.0,0.0,0.0,0.0,0.0,0.0,0.0,0.0,0.0,0.0,0.0,0.0,0.0,0.0,0.0,0.0,0.0,0.0,0.0,0.0,0.0,0.0,0.0,0.0,0.0,0.0,0.0,0.0,0.0,0.0,0.0,0.0,0.0,0.0,0.0,0.0,0.0,0.0,0.0,0.0,0.0,0.0,0.0,0.0,0.0,0.0,0.0,0.0,0.0,0.0,0.0,0.0,0.0,0.0,0.0,0.0,0.0,0.0,0.0,0.0,0.0,0.0,0.0,0.0,0.0,0.0,0.0,0.0,0.0,0.0,0.0,0.0,0.0,0.0,0.0,0.0,0.0,0.0,0.0,0.0,0.0,0.0,0.0,0.0,0.0,0.0,0.0,0.0,0.0,0.0,0.0,0.0,0.0,0.0,0.0,0.0,0.0,0.0,0.0,0.0,0.0,0.0,0.0,0.0,0.0,0.0,0.0,0.0,0.0,0.0,0.0,0.0,0.0,0.0,0.0,0.0,0.0,0.0,0.0,0.0,0.0,0.0,0.0,0.0,0.0,0.0,0.0,0.0,0.0,0.0,0.0,0.0,0.0,0.0,0.0,0.0,0.0,0.0,0.0,0.0,0.0,0.0,0.0,0.0,0.0,0.0,0.0,0.0,0.0,0.0,0.0,0.0,0.0,0.0,0.0,0.0,0.0,0.0,0.0,0.0,0.0,0.0,0.0,0.0,0.0,0.0,0.0,0.0,0.0,0.0,0.0,0.0,0.0,0.0,0.0,0.0,0.0,0.0,0.0,0.0,0.0,0.0,0.0,0.0,0.0,0.0,0.0,0.0,0.0,0.0,0.0,0.0,0.0,0.0,0.0,0.0,0.0,0.0,0.0,0.0,0.0,0.0,0.0,0.0,0.0,0.0,0.0,0.0,0.0,0.0,0.0,0.0,0.0,0.0,0.0,0.0,0.0,0.0,0.0,0.0,0.0,0.0,0.0,0.0,0.0,0.0,0.0,0.0,0.0,0.0,0.0,0.0,0.0,0.0,0.0,0.0,0.0,0.0,0.0,0.0,0.0,0.0,0.0,0.0,0.0,0.0,0.0,0.0,0.0,0.0,0.0,0.0,0.0,0.0,0.0,0.0,0.0,0.0,0.0,0.0,0.0,0.0,0.0,0.0,0.0,0.0,0.0,0.0,0.0,0.0,0.0,0.0,0.0,0.0,0.0,0.0,0.0,0.0,0.0,0.0,0.0,0.0,0.0,0.0,0.0,0.0,0.0,0.0,0.0,0.0,0.0,0.0,0.0,0.0,0.0,0.0,0.0,0.0,0.0,0.0,0.0,0.0,0.0,0.0,0.0,0.0,0.0,0.0,0.0,0.0,0.0,0.0,0.0,0.0,0.0,0.0,0.0,0.0,0.0,0.0,0.0,0.0,0.0,0.0,0.0,0.0,0.0,0.0,0.0,0.0,0.0,0.0,0.0,0.0,0.0,0.0,0.0,0.0,0.0,0.0,0.0,0.0,0.0,0.0,0.0,0.0,0.0,0.0,0.0,0.0,0.0,0.0,0.0,0.0,0.0,0.0,0.0,0.0,0.0,0.0,0.0,0.0,0.0,0.0,0.0,0.0,0.0,0.0,0.0,0.0,0.0,0.0,0.0,0.0,0.0,0.0,0.0,0.0,0.0,0.0,0.0,0.0,0.0,0.0,0.0,0.0,0.0,0.0,0.0,0.0,0.0,0.0,0.0,0.0,0.0,0.0,0.0,0.0,0.0,0.0,0.0,0.0,0.0,0.0,0.0,0.0,0.0,0.0,0.0,0.0,0.0,0.0,0.0,0.0,0.0,0.0,0.0,0.0,0.0,0.0,0.0,0.0,0.0,0.0,0.0,0.0,0.0,0.0,0.0,0.0,0.0,0.0,0.0,0.0,0.0,0.0,0.0,0.0,0.0,0.0,0.0,0.0,0.0,0.0,0.0,0.0,0.0,0.0,0.0,0.0,0.0,0.0,0.0,0.0,0.0,0.0,0.0,0.0,0.0,0.0,0.0,0.0,0.0,0.0,0.0,0.0,0.0,0.0,0.0,0.0,0.0,0.0,0.0,0.0,0.0,0.0,0.0,0.0,0.0,0.0,0.0,0.0,0.0,0.0,0.0,0.0,0.0,0.0,0.0,0.0,0.0,0.0,0.0,0.0,0.0,0.0,0.0,0.0,0.0,0.0,0.0,0.0,0.0,0.0,0.0,0.0,0.0,0.0,0.0,0.0,0.0,0.0,0.0,0.0,0.0,0.0,0.0,0.0,0.0,0.0,0.0,0.0,0.0,0.0,0.0,0.0,0.0,0.0,0.0,0.0,0.0,0.0,0.0,0.0,0.0,0.0,0.0,0.0,0.0,0.0,0.0,0.0,0.0,0.0,0.0,0.0,0.0,0.0,0.0,0.0,0.0,0.0,0.0,0.0,0.0,0.0,0.0,0.0,0.0,0.0,0.0,0.0,0.0,0.0,0.0,0.0,0.0,0.0,0.0,0.0,0.0,0.0,0.0,0.0,0.0,0.0,0.0,0.0,0.0,0.0,0.0,0.0,0.0,0.0,0.0,0.0,0.0,0.0,0.0,0.0,0.0,0.0,0.0,0.0,0.0,0.0,0.0,0.0,0.0,0.0,0.0,0.0,0.0,0.0,0.0,0.0,0.0,0.0,0.0,0.0,0.0,0.0,0.0,0.0,0.0,0.0,0.0,0.0,0.0,0.0,0.0,0.0,0.0,0.0,0.0,0.0,0.0,0.0,0.0,0.0,0.0,0.0,0.0,0.0,0.0,0.0,0.0,0.0,0.0,0.0,0.0,0.0,0.0,0.0,0.0,0.0,0.0,0.0,0.0,0.0,0.0,0.0,0.0,0.0,0.0,0.0,0.0,0.0,0.0,0.0,0.0,0.0,0.0,0.0,0.0,0.0,0.0,0.0,0.0,0.0,0.0,0.0,0.0,0.0,0.0,0.0,0.0,0.0,0.0,0.0,0.0,0.0,0.0,0.0,0.0,0.0,0.0,0.0,0.0,0.0,0.0,0.0,0.0,0.0,0.0,0.0,0.0,0.0,0.0,0.0,0.0,0.0,0.0,0.0,0.0,0.0,0.0,0.0,0.0,0.0,0.0,0.0,0.0,0.0,0.0,0.0,0.0,0.0,0.0,0.0,0.0,0.0,0.0,0.0,0.0,0.0,0.0,0.0,0.0,0.0,0.0,0.0,0.0,0.0,0.0,0.0,0.0,0.0,0.0,0.0,0.0,0.0,0.0,0.0,0.0,0.0,0.0,0.0,0.0,0.0,0.0,0.0,0.0,0.0,0.0,0.0,0.0,0.0,0.0,0.0,0.0,0.0,0.0,0.0,0.0,0.0,0.0,0.0,0.0,0.0,0.0,0.0,0.0,0.0,0.0,0.0,0.0,0.0,0.0,0.0,0.0,0.0,0.0,0.0,0.0,0.0,0.0,0.0,0.0,0.0,0.0,0.0,0.0,0.0,0.0,0.0,0.0,0.0,0.0,0.0,0.0,0.0,0.0,0.0,0.0,0.0,0.0,0.0,0.0,0.0,0.0,0.0,0.0,0.0,0.0,0.0,0.0,0.0,0.0,0.0,0.0,0.0,0.0,0.0,0.0,0.0,0.0,0.0,0.0,0.0,0.0,0.0,0.0,0.0,0.0,0.0,0.0,0.0,0.0,0.0,0.0,0.0,0.0,0.0,0.0,0.0,0.0,0.0,0.0,0.0,0.0,0.0,0.0,0.0,0.0,0.0,0.0,0.0,0.0,0.0,0.0,0.0,0.0,0.0,0.0,0.0,